{"learner":{"attributes":{"best_iteration":"195","best_score":"57.92915454545406","scikit_learn":"{\"_estimator_type\": \"regressor\"}"},"feature_names":["lag_1","lag_7","lag_14","lag_28","rolling_mean_7","rolling_mean_14","rolling_std_7","rolling_std_14","ewm_7","day_of_week","day_of_month","month","week_of_year","is_weekend","quarter","is_month_start","is_month_end","is_holiday","is_promotional","category_encoded","supplier_encoded","log_unit_price","lead_time_days","stock_to_reorder_ratio","days_of_supply"],"feature_types":["float","float","float","float","float","float","float","float","float","int","int","int","int","int","int","int","int","int","int","int","int","float","int","float","float"],"gradient_booster":{"model":{"cats":{"enc":[],"feature_segments":[],"sorted_idx":[]},"gbtree_model_param":{"num_parallel_tree":"1","num_trees":"246"},"iteration_indptr":[0,1,2,3,4,5,6,7,8,9,10,11,12,13,14,15,16,17,18,19,20,21,22,23,24,25,26,27,28,29,30,31,32,33,34,35,36,37,38,39,40,41,42,43,44,45,46,47,48,49,50,51,52,53,54,55,56,57,58,59,60,61,62,63,64,65,66,67,68,69,70,71,72,73,74,75,76,77,78,79,80,81,82,83,84,85,86,87,88,89,90,91,92,93,94,95,96,97,98,99,100,101,102,103,104,105,106,107,108,109,110,111,112,113,114,115,116,117,118,119,120,121,122,123,124,125,126,127,128,129,130,131,132,133,134,135,136,137,138,139,140,141,142,143,144,145,146,147,148,149,150,151,152,153,154,155,156,157,158,159,160,161,162,163,164,165,166,167,168,169,170,171,172,173,174,175,176,177,178,179,180,181,182,183,184,185,186,187,188,189,190,191,192,193,194,195,196,197,198,199,200,201,202,203,204,205,206,207,208,209,210,211,212,213,214,215,216,217,218,219,220,221,222,223,224,225,226,227,228,229,230,231,232,233,234,235,236,237,238,239,240,241,242,243,244,245,246],"tree_info":[0,0,0,0,0,0,0,0,0,0,0,0,0,0,0,0,0,0,0,0,0,0,0,0,0,0,0,0,0,0,0,0,0,0,0,0,0,0,0,0,0,0,0,0,0,0,0,0,0,0,0,0,0,0,0,0,0,0,0,0,0,0,0,0,0,0,0,0,0,0,0,0,0,0,0,0,0,0,0,0,0,0,0,0,0,0,0,0,0,0,0,0,0,0,0,0,0,0,0,0,0,0,0,0,0,0,0,0,0,0,0,0,0,0,0,0,0,0,0,0,0,0,0,0,0,0,0,0,0,0,0,0,0,0,0,0,0,0,0,0,0,0,0,0,0,0,0,0,0,0,0,0,0,0,0,0,0,0,0,0,0,0,0,0,0,0,0,0,0,0,0,0,0,0,0,0,0,0,0,0,0,0,0,0,0,0,0,0,0,0,0,0,0,0,0,0,0,0,0,0,0,0,0,0,0,0,0,0,0,0,0,0,0,0,0,0,0,0,0,0,0,0,0,0,0,0,0,0,0,0,0,0,0,0,0,0,0,0,0,0,0,0,0,0,0,0],"trees":[{"base_weights":[4.635166E-2,-1.0996535E2,6.7062604E2,-2.000145E2,5.4714813E1,5.323234E2,1.0812231E3,-2.5552245E2,-1.4183214E2,-2.3951895E0,1.6225165E2,4.1151685E2,6.8503613E2,9.289116E2,1.3792968E3,-2.8532376E2,-2.3236626E2,-1.721605E2,-1.10937294E2,-3.6271442E1,4.2394745E1,1.2429693E2,2.1730003E2,3.4832068E2,4.6718872E2,6.081611E2,7.3879877E2,8.402611E2,1.01429767E3,1.2917208E3,1.5469066E3,-2.9985016E2,-2.7063354E2,-2.4680669E2,-2.1744507E2,-1.8811823E2,-1.6018867E2,-1.25714355E2,-9.264542E1,-5.44567E1,-1.4284803E1,2.580558E1,6.667018E1,1.0652436E2,1.5290822E2,1.9631828E2,2.4325172E2,3.093647E2,3.7730612E2,4.3267233E2,5.0139053E2,6.3043115E2,5.6886786E2,3.0334848E1,7.4652026E2,8.072344E2,4.4349545E1,9.580752E2,1.1375222E3,6.0465675E1,1.3869307E3,6.710037E1,8.103591E1,-1.5558011E1,-1.4725812E1,-1.3966066E1,-1.3186978E1,-1.2664123E1,-1.1976629E1,-1.1194884E1,-1.0456059E1,-9.69488E0,-9.090283E0,-8.460657E0,-7.656162E0,-6.7350984E0,-5.879056E0,-4.9163547E0,-3.910043E0,-3.2741356E0,-2.397922E0,-1.0636038E0,1.9285884E-1,7.189537E-1,1.9268248E0,2.711338E0,4.0835667E0,6.5793834E0,4.5206375E0,6.4032283E0,9.367038E0,8.646251E0,1.1132293E1,1.3012904E1,1.1173156E1,1.5145439E1,2.1688581E1,1.9809713E1,1.7363358E1,2.0631124E1,2.285147E1,2.6509558E1,2.2911291E1,3.0193735E1,3.4124546E1,7.8030295E0,2.8507404E1,3.8340572E1,3.497523E1,3.370013E1,4.076254E1,4.8298225E1,2.8984241E1,6.3551125E1,5.3319E1,4.7069576E1,7.021368E1],"categories":[],"categories_nodes":[],"categories_segments":[],"categories_sizes":[],"default_left":[0,0,0,0,0,0,0,0,0,0,0,0,0,0,0,0,0,0,0,0,0,0,0,0,0,0,0,0,0,0,0,0,0,0,0,0,0,0,0,0,0,0,0,0,0,0,0,0,0,0,0,0,0,0,0,0,0,0,0,0,0,0,0,0,0,0,0,0,0,0,0,0,0,0,0,0,0,0,0,0,0,0,0,0,0,0,0,0,0,0,0,0,0,0,0,0,0,0,0,0,0,0,0,0,0,0,0,0,0,0,0,0,0,0,0,0,0],"id":0,"left_children":[1,3,5,7,9,11,13,15,17,19,21,23,25,27,29,31,33,35,37,39,41,43,45,47,49,51,53,55,57,59,61,63,65,67,69,71,73,75,77,79,81,83,85,87,89,91,93,95,97,99,101,103,105,-1,107,109,-1,111,113,-1,115,-1,-1,-1,-1,-1,-1,-1,-1,-1,-1,-1,-1,-1,-1,-1,-1,-1,-1,-1,-1,-1,-1,-1,-1,-1,-1,-1,-1,-1,-1,-1,-1,-1,-1,-1,-1,-1,-1,-1,-1,-1,-1,-1,-1,-1,-1,-1,-1,-1,-1,-1,-1,-1,-1,-1,-1],"loss_changes":[5.457476E9,9.424432E8,5.914824E8,1.3265434E8,1.3797987E8,1.4363648E8,1.1793946E8,1.4442624E7,1.8778784E7,2.2268138E7,1.6255264E7,1.5169728E7,1.3784704E7,1.2326144E7,1.1007104E7,1.879744E6,2.496832E6,1.903616E6,2.675408E6,3.340224E6,2.543402E6,2.330424E6,1.683248E6,2.1924E6,2.514816E6,8.86624E5,1.6096E6,6.112E5,5.020672E6,2.936192E6,2.347072E6,1.86528E5,2.00576E5,2.22368E5,2.66304E5,1.22816E5,3.4328E5,3.85912E5,3.57188E5,3.24515E5,4.79753E5,5.458305E5,4.74369E5,1.138962E6,1.4867E6,1.047312E6,4.18704E5,5.73784E5,5.2512E5,3.77424E5,1.194176E6,8.30752E5,1.8848E5,0E0,1.281984E6,5.44E2,0E0,1.267008E6,1.218464E6,0E0,7.33376E5,0E0,0E0,0E0,0E0,0E0,0E0,0E0,0E0,0E0,0E0,0E0,0E0,0E0,0E0,0E0,0E0,0E0,0E0,0E0,0E0,0E0,0E0,0E0,0E0,0E0,0E0,0E0,0E0,0E0,0E0,0E0,0E0,0E0,0E0,0E0,0E0,0E0,0E0,0E0,0E0,0E0,0E0,0E0,0E0,0E0,0E0,0E0,0E0,0E0,0E0,0E0,0E0,0E0,0E0,0E0,0E0],"parents":[2147483647,0,0,1,1,2,2,3,3,4,4,5,5,6,6,7,7,8,8,9,9,10,10,11,11,12,12,13,13,14,14,15,15,16,16,17,17,18,18,19,19,20,20,21,21,22,22,23,23,24,24,25,25,26,26,27,27,28,28,29,29,30,30,31,31,32,32,33,33,34,34,35,35,36,36,37,37,38,38,39,39,40,40,41,41,42,42,43,43,44,44,45,45,46,46,47,47,48,48,49,49,50,50,51,51,52,52,54,54,55,55,57,57,58,58,60,60],"right_children":[2,4,6,8,10,12,14,16,18,20,22,24,26,28,30,32,34,36,38,40,42,44,46,48,50,52,54,56,58,60,62,64,66,68,70,72,74,76,78,80,82,84,86,88,90,92,94,96,98,100,102,104,106,-1,108,110,-1,112,114,-1,116,-1,-1,-1,-1,-1,-1,-1,-1,-1,-1,-1,-1,-1,-1,-1,-1,-1,-1,-1,-1,-1,-1,-1,-1,-1,-1,-1,-1,-1,-1,-1,-1,-1,-1,-1,-1,-1,-1,-1,-1,-1,-1,-1,-1,-1,-1,-1,-1,-1,-1,-1,-1,-1,-1,-1,-1],"split_conditions":[9.078571E1,4.0857143E1,1.6678572E2,2.3E1,6.307143E1,1.2757143E2,2.0664285E2,1.5E1,3.1285715E1,5.1285713E1,7.614286E1,1.0792857E2,1.4314285E2,3.8E1,2.5428572E2,1.1357142E1,1.8857143E1,2.65E1,3.6214287E1,4.6357143E1,5.7642857E1,3.9E1,8.335714E1,9.778571E1,1.1721429E2,4.241708E1,8E0,3.1E1,1.94E2,1.8E1,4.7E1,8.857142E0,1.3142858E1,1.6928572E1,2.1142857E1,2.4785715E1,2.8571428E1,3.357143E1,3.9E1,4.292857E1,3.9E1,5.45E1,3.4E1,2.4057623E1,1.8E1,3.9E1,2.9940601E1,5.1E1,3.2592724E1,3.1E1,3.7550846E1,3.5E1,4E1,3.0334848E1,4.9139015E1,3E0,4.4349545E1,9.106863E1,5.0447014E1,6.0465675E1,1E1,6.710037E1,8.103591E1,-1.5558011E1,-1.4725812E1,-1.3966066E1,-1.3186978E1,-1.2664123E1,-1.1976629E1,-1.1194884E1,-1.0456059E1,-9.69488E0,-9.090283E0,-8.460657E0,-7.656162E0,-6.7350984E0,-5.879056E0,-4.9163547E0,-3.910043E0,-3.2741356E0,-2.397922E0,-1.0636038E0,1.9285884E-1,7.189537E-1,1.9268248E0,2.711338E0,4.0835667E0,6.5793834E0,4.5206375E0,6.4032283E0,9.367038E0,8.646251E0,1.1132293E1,1.3012904E1,1.1173156E1,1.5145439E1,2.1688581E1,1.9809713E1,1.7363358E1,2.0631124E1,2.285147E1,2.6509558E1,2.2911291E1,3.0193735E1,3.4124546E1,7.8030295E0,2.8507404E1,3.8340572E1,3.497523E1,3.370013E1,4.076254E1,4.8298225E1,2.8984241E1,6.3551125E1,5.3319E1,4.7069576E1,7.021368E1],"split_indices":[5,5,5,5,5,5,5,5,5,5,5,5,5,12,5,5,5,5,5,5,5,12,5,5,5,7,12,12,5,10,12,5,5,5,5,5,5,5,12,5,12,5,12,7,10,12,7,12,6,12,7,12,2,0,7,11,0,7,7,0,11,0,0,0,0,0,0,0,0,0,0,0,0,0,0,0,0,0,0,0,0,0,0,0,0,0,0,0,0,0,0,0,0,0,0,0,0,0,0,0,0,0,0,0,0,0,0,0,0,0,0,0,0,0,0,0,0],"split_type":[0,0,0,0,0,0,0,0,0,0,0,0,0,0,0,0,0,0,0,0,0,0,0,0,0,0,0,0,0,0,0,0,0,0,0,0,0,0,0,0,0,0,0,0,0,0,0,0,0,0,0,0,0,0,0,0,0,0,0,0,0,0,0,0,0,0,0,0,0,0,0,0,0,0,0,0,0,0,0,0,0,0,0,0,0,0,0,0,0,0,0,0,0,0,0,0,0,0,0,0,0,0,0,0,0,0,0,0,0,0,0,0,0,0,0,0,0],"sum_hessian":[7.3976E4,6.3551E4,1.0425E4,4.1085E4,2.2466E4,7.8E3,2.625E3,2.1024E4,2.0061E4,1.4674E4,7.792E3,4.357E3,3.443E3,1.74E3,8.85E2,9.188E3,1.1836E4,1.0121E4,9.94E3,8.355E3,6.319E3,4.614E3,3.178E3,2.044E3,2.313E3,1.422E3,2.021E3,8.59E2,8.81E2,5.87E2,2.98E2,4.61E3,4.578E3,6.007E3,5.829E3,4.332E3,5.789E3,5.495E3,4.445E3,4.572E3,3.783E3,3.755E3,2.564E3,2.849E3,1.765E3,1.762E3,1.416E3,8.77E2,1.167E3,1.158E3,1.155E3,8.98E2,5.24E2,1.16E2,1.905E3,5.14E2,3.45E2,6.11E2,2.7E2,3.22E2,2.65E2,8.4E1,2.14E2,1.459E3,3.151E3,2.008E3,2.57E3,3.16E3,2.847E3,3.269E3,2.56E3,2.246E3,2.086E3,2.532E3,3.257E3,2.603E3,2.892E3,3.186E3,1.259E3,1.692E3,2.88E3,2.731E3,1.052E3,1.98E3,1.775E3,1.404E3,1.16E3,1.112E3,1.737E3,1.028E3,7.37E2,9.37E2,8.25E2,7.55E2,6.61E2,8.37E2,4E1,7.09E2,4.58E2,6.45E2,5.13E2,6.86E2,4.69E2,6.03E2,2.95E2,2E0,5.22E2,1.32E3,5.85E2,3.4E1,4.8E2,5.97E2,1.4E1,8.8E1,1.82E2,1.2E1,2.53E2],"tree_param":{"num_deleted":"0","num_feature":"25","num_nodes":"117","size_leaf_vector":"1"}},{"base_weights":[-1.4461559E-1,-1.0438853E2,6.3638696E2,-1.9004605E2,5.1577103E1,4.8689392E2,9.7484894E2,-2.4200197E2,-1.3406436E2,-6.105567E0,1.4942375E2,3.8168015E2,6.226231E2,8.1827875E2,1.254242E3,-2.703002E2,-2.193678E2,-1.6262482E2,-1.0576576E2,-3.8619114E1,3.1087992E1,1.1144266E2,2.0357172E2,3.3040573E2,4.327677E2,5.549595E2,6.78995E2,7.501394E2,8.6926605E2,1.119765E3,1.3856074E3,-2.8379868E2,-2.5555669E2,-2.3324203E2,-2.0469414E2,-1.7550793E2,-1.4939902E2,-1.1772738E2,-8.6217995E1,-5.251706E1,-1.9542421E1,8.596938E0,4.843731E1,8.604468E1,1.297428E2,1.8327896E2,2.3165276E2,2.8180154E2,3.5018317E2,4.0161102E2,4.5567212E2,5.7393097E2,5.1758044E2,6.972189E2,5.994734E2,7.7700134E2,7.150954E2,8.1418164E2,9.1297546E2,4.57523E1,1.1474144E3,1.2867213E3,1.4767272E3,-1.4712962E1,-1.3919944E1,-1.3220447E1,-1.2497845E1,-1.1990601E1,-1.1348529E1,-1.0583725E1,-9.870166E0,-9.064414E0,-8.370695E0,-7.7589846E0,-7.050167E0,-6.368948E0,-5.531043E0,-4.551772E0,-3.6330032E0,-3.1340907E0,-2.2888541E0,-1.4202241E0,-4.749559E-1,-2.0781083E-1,7.9473203E-1,1.7640088E0,2.987341E0,3.4013565E0,5.416105E0,5.5733256E0,7.5354524E0,8.103721E0,1.00364E1,1.2443324E1,1.060292E1,1.2969035E1,1.5068944E1,1.8540792E1,1.5977492E1,1.8936802E1,2.1092186E1,2.3793806E1,2.0816702E1,2.7738688E1,3.1566141E1,2.283298E1,2.6435898E1,3.3882736E1,3.8938786E1,2.8393942E1,3.2161304E1,1.4274066E1,3.892154E1,2.8648792E1,3.6135185E1,4.115345E1,2.5881712E1,4.266154E1,4.7952053E1,5.2601807E1,6.248255E1,5.886447E1,6.857271E1,6.6380974E1,7.729874E1],"categories":[],"categories_nodes":[],"categories_segments":[],"categories_sizes":[],"default_left":[0,0,0,0,0,0,0,0,0,0,0,0,0,0,0,0,0,0,0,0,0,0,0,0,0,0,0,0,0,0,0,0,0,0,0,0,0,0,0,0,0,0,0,0,0,0,0,0,0,0,0,0,0,0,0,0,0,0,0,0,0,0,0,0,0,0,0,0,0,0,0,0,0,0,0,0,0,0,0,0,0,0,0,0,0,0,0,0,0,0,0,0,0,0,0,0,0,0,0,0,0,0,0,0,0,0,0,0,0,0,0,0,0,0,0,0,0,0,0,0,0,0,0,0,0],"id":1,"left_children":[1,3,5,7,9,11,13,15,17,19,21,23,25,27,29,31,33,35,37,39,41,43,45,47,49,51,53,55,57,59,61,63,65,67,69,71,73,75,77,79,81,83,85,87,89,91,93,95,97,99,101,103,105,107,109,111,113,115,117,-1,119,121,123,-1,-1,-1,-1,-1,-1,-1,-1,-1,-1,-1,-1,-1,-1,-1,-1,-1,-1,-1,-1,-1,-1,-1,-1,-1,-1,-1,-1,-1,-1,-1,-1,-1,-1,-1,-1,-1,-1,-1,-1,-1,-1,-1,-1,-1,-1,-1,-1,-1,-1,-1,-1,-1,-1,-1,-1,-1,-1,-1,-1,-1,-1],"loss_changes":[4.9250995E9,8.5207366E8,5.2801843E8,1.1971098E8,1.2761866E8,1.0325376E8,1.3891277E8,1.3616E7,1.6000928E7,1.7204624E7,1.7223952E7,1.0557632E7,1.1687808E7,6.480512E6,1.8710912E7,1.81504E6,2.368448E6,1.654176E6,2.31824E6,2.011551E6,2.5889805E6,2.2807E6,1.926912E6,1.865184E6,1.274944E6,7.2624E5,2.07616E6,2.78368E5,2.068928E6,2.187776E6,3.289984E6,1.97184E5,1.59104E5,1.9664E5,2.52176E5,2.03104E5,2.14616E5,4.09448E5,2.40536E5,2.9796E5,2.8463325E5,2.6912775E5,5.553E5,8.22694E5,1.080644E6,7.11536E5,4.34952E5,1.8344E5,7.96704E5,2.44736E5,7.31776E5,6.92032E5,9.5088E4,1.696512E6,8.8144E4,1.2208E5,1.52E4,9.60192E5,9.5136E5,0E0,3.56096E6,1.018784E6,9.72864E5,0E0,0E0,0E0,0E0,0E0,0E0,0E0,0E0,0E0,0E0,0E0,0E0,0E0,0E0,0E0,0E0,0E0,0E0,0E0,0E0,0E0,0E0,0E0,0E0,0E0,0E0,0E0,0E0,0E0,0E0,0E0,0E0,0E0,0E0,0E0,0E0,0E0,0E0,0E0,0E0,0E0,0E0,0E0,0E0,0E0,0E0,0E0,0E0,0E0,0E0,0E0,0E0,0E0,0E0,0E0,0E0,0E0,0E0,0E0,0E0,0E0,0E0],"parents":[2147483647,0,0,1,1,2,2,3,3,4,4,5,5,6,6,7,7,8,8,9,9,10,10,11,11,12,12,13,13,14,14,15,15,16,16,17,17,18,18,19,19,20,20,21,21,22,22,23,23,24,24,25,25,26,26,27,27,28,28,29,29,30,30,31,31,32,32,33,33,34,34,35,35,36,36,37,37,38,38,39,39,40,40,41,41,42,42,43,43,44,44,45,45,46,46,47,47,48,48,49,49,50,50,51,51,52,52,53,53,54,54,55,55,56,56,57,57,58,58,60,60,61,61,62,62],"right_children":[2,4,6,8,10,12,14,16,18,20,22,24,26,28,30,32,34,36,38,40,42,44,46,48,50,52,54,56,58,60,62,64,66,68,70,72,74,76,78,80,82,84,86,88,90,92,94,96,98,100,102,104,106,108,110,112,114,116,118,-1,120,122,124,-1,-1,-1,-1,-1,-1,-1,-1,-1,-1,-1,-1,-1,-1,-1,-1,-1,-1,-1,-1,-1,-1,-1,-1,-1,-1,-1,-1,-1,-1,-1,-1,-1,-1,-1,-1,-1,-1,-1,-1,-1,-1,-1,-1,-1,-1,-1,-1,-1,-1,-1,-1,-1,-1,-1,-1,-1,-1,-1,-1,-1,-1],"split_conditions":[9.078571E1,4.0857143E1,1.5928572E2,2.3214285E1,6.1785713E1,1.2464286E2,1.94E2,1.5142858E1,3.1285715E1,5.007143E1,7.514286E1,1.0792857E2,1.3985715E2,8E0,2.2528572E2,1.1642858E1,1.9071428E1,2.7214285E1,3.6714287E1,4.607143E1,5.45E1,6.7E1,8.335714E1,9.521429E1,1.1478571E2,4.241708E1,5.1836597E1,3E0,1.7564285E2,1E1,1.2E1,9.071428E0,1.3142858E1,1.6928572E1,2.1142857E1,2.55E1,2.9571428E1,3.357143E1,1E1,4.292857E1,4.8142857E1,6E0,5.7642857E1,9E0,9E0,9E0,2.9940601E1,9E0,3.3609806E1,7E0,3.748968E1,9E0,1.2757143E2,1E1,1.5292857E2,1.06E2,3E0,7.84592E1,1E1,4.57523E1,1.7E1,1.8E1,2.5428572E2,-1.4712962E1,-1.3919944E1,-1.3220447E1,-1.2497845E1,-1.1990601E1,-1.1348529E1,-1.0583725E1,-9.870166E0,-9.064414E0,-8.370695E0,-7.7589846E0,-7.050167E0,-6.368948E0,-5.531043E0,-4.551772E0,-3.6330032E0,-3.1340907E0,-2.2888541E0,-1.4202241E0,-4.749559E-1,-2.0781083E-1,7.9473203E-1,1.7640088E0,2.987341E0,3.4013565E0,5.416105E0,5.5733256E0,7.5354524E0,8.103721E0,1.00364E1,1.2443324E1,1.060292E1,1.2969035E1,1.5068944E1,1.8540792E1,1.5977492E1,1.8936802E1,2.1092186E1,2.3793806E1,2.0816702E1,2.7738688E1,3.1566141E1,2.283298E1,2.6435898E1,3.3882736E1,3.8938786E1,2.8393942E1,3.2161304E1,1.4274066E1,3.892154E1,2.8648792E1,3.6135185E1,4.115345E1,2.5881712E1,4.266154E1,4.7952053E1,5.2601807E1,6.248255E1,5.886447E1,6.857271E1,6.6380974E1,7.729874E1],"split_indices":[5,5,5,5,5,5,5,5,5,5,5,5,5,11,5,5,5,5,5,5,5,5,5,5,5,7,7,22,5,11,11,5,5,5,5,5,5,5,11,5,5,11,5,11,11,11,7,11,6,11,6,11,5,11,5,0,11,7,11,0,10,10,5,0,0,0,0,0,0,0,0,0,0,0,0,0,0,0,0,0,0,0,0,0,0,0,0,0,0,0,0,0,0,0,0,0,0,0,0,0,0,0,0,0,0,0,0,0,0,0,0,0,0,0,0,0,0,0,0,0,0,0,0,0,0],"split_type":[0,0,0,0,0,0,0,0,0,0,0,0,0,0,0,0,0,0,0,0,0,0,0,0,0,0,0,0,0,0,0,0,0,0,0,0,0,0,0,0,0,0,0,0,0,0,0,0,0,0,0,0,0,0,0,0,0,0,0,0,0,0,0,0,0,0,0,0,0,0,0,0,0,0,0,0,0,0,0,0,0,0,0,0,0,0,0,0,0,0,0,0,0,0,0,0,0,0,0,0,0,0,0,0,0,0,0,0,0,0,0,0,0,0,0,0,0,0,0,0,0,0,0,0,0],"sum_hessian":[7.4222E4,6.3778E4,1.0444E4,4.1168E4,2.261E4,7.246E3,3.198E3,2.135E4,1.9818E4,1.4225E4,8.385E3,4.084E3,3.162E3,2.052E3,1.146E3,9.483E3,1.1867E4,9.861E3,9.957E3,7.59E3,6.635E3,4.93E3,3.455E3,2.042E3,2.042E3,1.442E3,1.72E3,8.85E2,1.167E3,5.71E2,5.75E2,4.941E3,4.542E3,6.092E3,5.775E3,4.989E3,4.872E3,6.174E3,3.783E3,4.39E3,3.2E3,2.89E3,3.745E3,2.067E3,2.863E3,2.01E3,1.445E3,5.95E2,1.447E3,8.73E2,1.169E3,9.47E2,4.95E2,1.393E3,3.27E2,4.89E2,3.96E2,5.25E2,6.42E2,7.2E1,4.99E2,2.83E2,2.92E2,1.664E3,3.277E3,1.742E3,2.8E3,2.957E3,3.135E3,2.936E3,2.839E3,2.898E3,2.091E3,2.875E3,1.997E3,2.611E3,3.563E3,2.787E3,9.96E2,1.747E3,2.643E3,1.699E3,1.501E3,1.052E3,1.838E3,1.733E3,2.012E3,1.145E3,9.22E2,1.533E3,1.33E3,9.12E2,1.098E3,7.63E2,6.82E2,2.84E2,3.11E2,8.58E2,5.89E2,4.19E2,4.54E2,7.65E2,4.04E2,7.18E2,2.29E2,8.3E1,4.12E2,1.131E3,2.62E2,1.98E2,1.29E2,2E0,4.87E2,2.4E1,3.72E2,5.08E2,1.7E1,2.88E2,3.54E2,2.64E2,2.35E2,1.3E2,1.53E2,9.9E1,1.93E2],"tree_param":{"num_deleted":"0","num_feature":"25","num_nodes":"125","size_leaf_vector":"1"}},{"base_weights":[4.616047E-1,-9.912336E1,6.0796704E2,-1.7884158E2,5.244891E1,4.8181293E2,9.766244E2,-2.2704785E2,-1.22322365E2,1.8402425E0,1.4939148E2,3.6341318E2,6.087262E2,8.386728E2,1.2433694E3,-2.5262738E2,-2.0177998E2,-1.4820787E2,-9.514002E1,-3.060011E1,3.966756E1,1.1148654E2,1.9267969E2,3.1440543E2,4.1339526E2,5.2791956E2,6.5975244E2,7.4127313E2,9.0463837E2,1.1716139E3,1.3870433E3,-2.685005E2,-2.3748244E2,-2.142738E2,-1.8721223E2,-1.6055725E2,-1.3480803E2,-1.07015594E2,-7.588365E1,-4.4754738E1,-1.0655636E1,2.319908E1,6.1594345E1,9.426116E1,1.3673203E2,1.7478638E2,2.1845093E2,2.7856226E2,3.4145752E2,3.864766E2,4.3286597E2,5.4331604E2,4.8100882E2,6.361382E2,6.974721E2,8.0214545E2,7.219902E2,8.605956E2,1.0257092E3,1.1007937E3,1.2490315E3,6.0398132E1,7.2731445E1,-1.3757781E1,-1.2979695E1,-1.2311913E1,-1.163148E1,-1.0981862E1,-1.0277946E1,-9.628987E0,-8.936345E0,-8.390553E0,-7.729825E0,-7.0532756E0,-6.3181467E0,-5.5887923E0,-4.639273E0,-3.2454917E0,-4.0478926E0,-2.6091888E0,-1.755783E0,-8.476785E-1,2.7416408E-1,5.4765916E-1,1.6822106E0,2.505745E0,3.7523248E0,6.081066E0,3.853338E0,5.7777443E0,8.1042795E0,7.654177E0,9.972069E0,1.1764364E1,9.997918E0,1.3598619E1,2.0523962E1,1.7746029E1,1.4890889E1,1.8161728E1,2.0620438E1,2.2661533E1,1.9813265E1,2.632669E1,2.978313E1,2.5440634E1,2.2432692E1,3.2692757E1,2.7827576E1,3.3355274E1,3.7062057E1,9.57267E0,4.0236668E1,3.0163614E1,3.6491215E1,4.3259808E1,2.6289799E1,5.881209E1,4.7569637E1,4.7371624E1,5.6382923E1,6.601589E1,5.5124172E1],"categories":[],"categories_nodes":[],"categories_segments":[],"categories_sizes":[],"default_left":[0,0,0,0,0,0,0,0,0,0,0,0,0,0,0,0,0,0,0,0,0,0,0,0,0,0,0,0,0,0,0,0,0,0,0,0,0,0,0,0,0,0,0,0,0,0,0,0,0,0,0,0,0,0,0,0,0,0,0,0,0,0,0,0,0,0,0,0,0,0,0,0,0,0,0,0,0,0,0,0,0,0,0,0,0,0,0,0,0,0,0,0,0,0,0,0,0,0,0,0,0,0,0,0,0,0,0,0,0,0,0,0,0,0,0,0,0,0,0,0,0,0,0],"id":2,"left_children":[1,3,5,7,9,11,13,15,17,19,21,23,25,27,29,31,33,35,37,39,41,43,45,47,49,51,53,55,57,59,61,63,65,67,69,71,73,75,77,79,81,83,85,87,89,91,93,95,97,99,101,103,105,107,109,111,113,115,117,119,121,-1,-1,-1,-1,-1,-1,-1,-1,-1,-1,-1,-1,-1,-1,-1,-1,-1,-1,-1,-1,-1,-1,-1,-1,-1,-1,-1,-1,-1,-1,-1,-1,-1,-1,-1,-1,-1,-1,-1,-1,-1,-1,-1,-1,-1,-1,-1,-1,-1,-1,-1,-1,-1,-1,-1,-1,-1,-1,-1,-1,-1,-1],"loss_changes":[4.485049E9,7.6962854E8,4.8511565E8,1.1369907E8,1.0770899E8,1.166999E8,9.68768E7,1.4508416E7,1.3506816E7,1.7702584E7,1.2334032E7,9.73664E6,1.5130368E7,1.0618112E7,7.704832E6,2.62624E6,2.023296E6,1.606848E6,2.135984E6,2.1919165E6,2.403503E6,1.733956E6,1.58224E6,1.880992E6,8.76224E5,7.91712E5,1.602304E6,2.6016E5,4.678848E6,1.969536E6,1.825472E6,2.51968E5,1.86432E5,2.39808E5,2.04336E5,1.95272E5,2.31912E5,3.82312E5,1.94092E5,3.23416E5,3.278878E5,4.8632888E5,4.37273E5,1.115454E6,8.54832E5,1.081904E6,4.00048E5,6.55096E5,5.74064E5,3.59496E5,6.75344E5,6.43904E5,1.03672E5,1.644032E6,6.67168E5,1.03536E5,7.4016E4,7.32608E5,1.935008E6,2.7888E5,1.511264E6,0E0,0E0,0E0,0E0,0E0,0E0,0E0,0E0,0E0,0E0,0E0,0E0,0E0,0E0,0E0,0E0,0E0,0E0,0E0,0E0,0E0,0E0,0E0,0E0,0E0,0E0,0E0,0E0,0E0,0E0,0E0,0E0,0E0,0E0,0E0,0E0,0E0,0E0,0E0,0E0,0E0,0E0,0E0,0E0,0E0,0E0,0E0,0E0,0E0,0E0,0E0,0E0,0E0,0E0,0E0,0E0,0E0,0E0,0E0,0E0,0E0,0E0],"parents":[2147483647,0,0,1,1,2,2,3,3,4,4,5,5,6,6,7,7,8,8,9,9,10,10,11,11,12,12,13,13,14,14,15,15,16,16,17,17,18,18,19,19,20,20,21,21,22,22,23,23,24,24,25,25,26,26,27,27,28,28,29,29,30,30,31,31,32,32,33,33,34,34,35,35,36,36,37,37,38,38,39,39,40,40,41,41,42,42,43,43,44,44,45,45,46,46,47,47,48,48,49,49,50,50,51,51,52,52,53,53,54,54,55,55,56,56,57,57,58,58,59,59,60,60],"right_children":[2,4,6,8,10,12,14,16,18,20,22,24,26,28,30,32,34,36,38,40,42,44,46,48,50,52,54,56,58,60,62,64,66,68,70,72,74,76,78,80,82,84,86,88,90,92,94,96,98,100,102,104,106,108,110,112,114,116,118,120,122,-1,-1,-1,-1,-1,-1,-1,-1,-1,-1,-1,-1,-1,-1,-1,-1,-1,-1,-1,-1,-1,-1,-1,-1,-1,-1,-1,-1,-1,-1,-1,-1,-1,-1,-1,-1,-1,-1,-1,-1,-1,-1,-1,-1,-1,-1,-1,-1,-1,-1,-1,-1,-1,-1,-1,-1,-1,-1,-1,-1,-1,-1],"split_conditions":[9.078571E1,4.157143E1,1.6678572E2,2.4142857E1,6.3785713E1,1.2464286E2,2.0664285E2,1.6142857E1,3.2285713E1,5.1285713E1,7.514286E1,1.0792857E2,1.3985715E2,3.5E1,2.5428572E2,1.2142858E1,2.0285715E1,2.8357143E1,3.757143E1,4.707143E1,5.7642857E1,3.8E1,8.335714E1,9.778571E1,1.1478571E2,4.6675934E1,1.5585715E2,5.26269E0,1.94E2,1.8E1,4.7E1,1.0142858E1,1.3857142E1,1.8642857E1,2.2571428E1,2.6E1,3.0571428E1,3.9E1,3E0,4.4714287E1,3.9E1,5.407143E1,3.4E1,2.4057623E1,1.8E1,3.9E1,2.9940601E1,5.1E1,3.8763016E1,2.9E1,3.748968E1,3.9E1,1.5E1,5.1836597E1,3E1,4.983607E0,7E0,9.106863E1,4.9139015E1,1.51E2,2.6E1,6.0398132E1,7.2731445E1,-1.3757781E1,-1.2979695E1,-1.2311913E1,-1.163148E1,-1.0981862E1,-1.0277946E1,-9.628987E0,-8.936345E0,-8.390553E0,-7.729825E0,-7.0532756E0,-6.3181467E0,-5.5887923E0,-4.639273E0,-3.2454917E0,-4.0478926E0,-2.6091888E0,-1.755783E0,-8.476785E-1,2.7416408E-1,5.4765916E-1,1.6822106E0,2.505745E0,3.7523248E0,6.081066E0,3.853338E0,5.7777443E0,8.1042795E0,7.654177E0,9.972069E0,1.1764364E1,9.997918E0,1.3598619E1,2.0523962E1,1.7746029E1,1.4890889E1,1.8161728E1,2.0620438E1,2.2661533E1,1.9813265E1,2.632669E1,2.978313E1,2.5440634E1,2.2432692E1,3.2692757E1,2.7827576E1,3.3355274E1,3.7062057E1,9.57267E0,4.0236668E1,3.0163614E1,3.6491215E1,4.3259808E1,2.6289799E1,5.881209E1,4.7569637E1,4.7371624E1,5.6382923E1,6.601589E1,5.5124172E1],"split_indices":[5,5,5,5,5,5,5,5,5,5,5,5,5,12,5,5,5,5,5,5,5,12,5,5,5,7,5,21,5,10,12,5,5,5,5,5,5,12,19,5,12,5,12,7,10,12,7,12,7,12,6,12,10,7,12,21,12,7,7,3,10,0,0,0,0,0,0,0,0,0,0,0,0,0,0,0,0,0,0,0,0,0,0,0,0,0,0,0,0,0,0,0,0,0,0,0,0,0,0,0,0,0,0,0,0,0,0,0,0,0,0,0,0,0,0,0,0,0,0,0,0,0,0],"split_type":[0,0,0,0,0,0,0,0,0,0,0,0,0,0,0,0,0,0,0,0,0,0,0,0,0,0,0,0,0,0,0,0,0,0,0,0,0,0,0,0,0,0,0,0,0,0,0,0,0,0,0,0,0,0,0,0,0,0,0,0,0,0,0,0,0,0,0,0,0,0,0,0,0,0,0,0,0,0,0,0,0,0,0,0,0,0,0,0,0,0,0,0,0,0,0,0,0,0,0,0,0,0,0,0,0,0,0,0,0,0,0,0,0,0,0,0,0,0,0,0,0,0,0],"sum_hessian":[7.4133E4,6.3693E4,1.044E4,4.174E4,2.1953E4,7.78E3,2.66E3,2.2525E4,1.9215E4,1.4424E4,7.529E3,4.027E3,3.753E3,1.756E3,9.04E2,1.1189E4,1.1336E4,9.84E3,9.375E3,7.765E3,6.659E3,4.016E3,3.513E3,2.037E3,1.99E3,1.457E3,2.296E3,7.14E2,1.042E3,6.09E2,2.95E2,5.455E3,5.734E3,6.095E3,5.241E3,5.115E3,4.725E3,5.796E3,3.579E3,4.541E3,3.224E3,3.804E3,2.855E3,2.39E3,1.626E3,2.078E3,1.435E3,8.81E2,1.156E3,8.44E2,1.146E3,1.089E3,3.68E2,1.423E3,8.73E2,1.62E2,5.52E2,7.7E2,2.72E2,3.26E2,2.83E2,8.6E1,2.09E2,3.105E3,2.35E3,2.027E3,3.707E3,3.758E3,2.337E3,3.197E3,2.044E3,2.295E3,2.82E3,2.705E3,2.02E3,4.338E3,1.458E3,1.136E3,2.443E3,2.562E3,1.979E3,2.319E3,9.05E2,1.752E3,2.052E3,1.543E3,1.312E3,9.2E2,1.47E3,8.89E2,7.37E2,1.109E3,9.69E2,7.45E2,6.9E2,8.42E2,3.9E1,8.78E2,2.78E2,4.53E2,3.91E2,7.29E2,4.17E2,8.33E2,2.56E2,1.9E2,1.78E2,1.158E3,2.65E2,5.25E2,3.48E2,1E0,1.61E2,3.9E1,5.13E2,7.58E2,1.2E1,8.5E1,1.87E2,5.4E1,2.72E2,1.85E2,9.8E1],"tree_param":{"num_deleted":"0","num_feature":"25","num_nodes":"123","size_leaf_vector":"1"}},{"base_weights":[-3.8389215E-1,-9.375773E1,5.7375574E2,-1.717104E2,4.730445E1,4.6605795E2,9.5398047E2,-2.1773407E2,-1.20237335E2,-4.84142E0,1.3419028E2,3.5365775E2,5.961458E2,8.186641E2,1.182908E3,-2.4478519E2,-1.9789836E2,-1.4588785E2,-9.545176E1,-3.8831158E1,2.495875E1,1.0002676E2,1.8361258E2,2.9942725E2,4.0084836E2,5.2349554E2,6.412108E2,7.383136E2,9.011556E2,1.1042583E3,1.3365704E3,-2.5836853E2,-2.3295956E2,-2.1181172E2,-1.8488786E2,-1.5570488E2,-1.3265776E2,-1.0891551E2,-8.032073E1,-5.1546513E1,-2.6842724E1,5.2294827E0,4.5077087E1,7.582374E1,1.17228836E2,1.6621368E2,2.0799812E2,2.630487E2,3.2753638E2,3.6460208E2,4.2143576E2,5.4267126E2,4.8839062E2,5.293269E2,6.488084E2,7.084711E2,3.9827236E1,8.245654E2,9.525656E2,1.0353036E3,1.1760187E3,5.7827084E1,6.9752945E1,-1.3598618E1,-1.2739536E1,-1.2005748E1,-1.1310944E1,-1.0850534E1,-1.0290776E1,-9.61142E0,-8.863175E0,-8.089426E0,-7.441789E0,-6.871663E0,-6.316814E0,-5.84119E0,-5.133645E0,-4.5141916E0,-3.6368463E0,-2.8021991E0,-2.0191584E0,-1.4832588E0,-1.6076194E-1,-4.5595683E-2,1.0095484E0,1.6851158E0,2.7550194E0,2.8201714E0,4.6736097E0,5.113374E0,7.0562067E0,7.2535706E0,9.410527E0,1.020636E1,1.4283348E1,1.2536117E1,1.5500127E1,1.7091797E1,1.4399243E1,1.860459E1,1.5636291E1,2.212068E1,1.9381643E1,2.6069077E1,2.9304071E1,2.4651552E1,1.8354239E1,2.7121414E1,1.9203167E1,3.1380156E1,3.406162E1,3.8837097E1,3.4190487E1,4.1424347E1,1.6803818E1,5.3975403E1,4.5283855E1,4.498675E1,5.343399E1,3.912377E1,5.97242E1],"categories":[],"categories_nodes":[],"categories_segments":[],"categories_sizes":[],"default_left":[0,0,0,0,0,0,0,0,0,0,0,0,0,0,0,0,0,0,0,0,0,0,0,0,0,0,0,0,0,0,0,0,0,0,0,0,0,0,0,0,0,0,0,0,0,0,0,0,0,0,0,0,0,0,0,0,0,0,0,0,0,0,0,0,0,0,0,0,0,0,0,0,0,0,0,0,0,0,0,0,0,0,0,0,0,0,0,0,0,0,0,0,0,0,0,0,0,0,0,0,0,0,0,0,0,0,0,0,0,0,0,0,0,0,0,0,0,0,0,0,0],"id":3,"left_children":[1,3,5,7,9,11,13,15,17,19,21,23,25,27,29,31,33,35,37,39,41,43,45,47,49,51,53,55,57,59,61,63,65,67,69,71,73,75,77,79,81,83,85,87,89,91,93,95,97,99,101,103,105,107,109,111,-1,113,115,117,119,-1,-1,-1,-1,-1,-1,-1,-1,-1,-1,-1,-1,-1,-1,-1,-1,-1,-1,-1,-1,-1,-1,-1,-1,-1,-1,-1,-1,-1,-1,-1,-1,-1,-1,-1,-1,-1,-1,-1,-1,-1,-1,-1,-1,-1,-1,-1,-1,-1,-1,-1,-1,-1,-1,-1,-1,-1,-1,-1,-1],"loss_changes":[3.9708111E9,7.005523E8,4.238318E8,9.718016E7,1.0273963E8,1.1787558E8,6.98464E7,1.1574912E7,1.230208E7,1.4355788E7,1.4341824E7,1.0974016E7,1.1915648E7,8.879424E6,8.760448E6,1.4112E6,2.22416E6,1.215536E6,1.99892E6,1.007903E6,2.997305E6,2.085728E6,1.4398E6,1.980464E6,1.573824E6,7.02976E5,1.615872E6,7.12896E5,1.994368E6,1.583168E6,1.355904E6,1.37728E5,1.82384E5,1.43456E5,3.27952E5,2.04008E5,1.05232E5,2.45312E5,3.44326E5,1.59001E5,2.273085E5,3.5046556E5,4.24436E5,7.12079E5,1.03628E6,9.18176E5,3.75528E5,4.35064E5,5.4404E5,2.12336E5,8.70896E5,5.456E5,1.106E5,8.0952E4,1.053504E6,3.0224E5,0E0,2.79008E5,1.498368E6,3.82336E5,1.027424E6,0E0,0E0,0E0,0E0,0E0,0E0,0E0,0E0,0E0,0E0,0E0,0E0,0E0,0E0,0E0,0E0,0E0,0E0,0E0,0E0,0E0,0E0,0E0,0E0,0E0,0E0,0E0,0E0,0E0,0E0,0E0,0E0,0E0,0E0,0E0,0E0,0E0,0E0,0E0,0E0,0E0,0E0,0E0,0E0,0E0,0E0,0E0,0E0,0E0,0E0,0E0,0E0,0E0,0E0,0E0,0E0,0E0,0E0,0E0,0E0],"parents":[2147483647,0,0,1,1,2,2,3,3,4,4,5,5,6,6,7,7,8,8,9,9,10,10,11,11,12,12,13,13,14,14,15,15,16,16,17,17,18,18,19,19,20,20,21,21,22,22,23,23,24,24,25,25,26,26,27,27,28,28,29,29,30,30,31,31,32,32,33,33,34,34,35,35,36,36,37,37,38,38,39,39,40,40,41,41,42,42,43,43,44,44,45,45,46,46,47,47,48,48,49,49,50,50,51,51,52,52,53,53,54,54,55,55,57,57,58,58,59,59,60,60],"right_children":[2,4,6,8,10,12,14,16,18,20,22,24,26,28,30,32,34,36,38,40,42,44,46,48,50,52,54,56,58,60,62,64,66,68,70,72,74,76,78,80,82,84,86,88,90,92,94,96,98,100,102,104,106,108,110,112,-1,114,116,118,120,-1,-1,-1,-1,-1,-1,-1,-1,-1,-1,-1,-1,-1,-1,-1,-1,-1,-1,-1,-1,-1,-1,-1,-1,-1,-1,-1,-1,-1,-1,-1,-1,-1,-1,-1,-1,-1,-1,-1,-1,-1,-1,-1,-1,-1,-1,-1,-1,-1,-1,-1,-1,-1,-1,-1,-1,-1,-1,-1,-1],"split_conditions":[9.078571E1,4.0857143E1,1.7092857E2,2.35E1,6.1785713E1,1.2757143E2,2.0664285E2,1.5E1,3.1285715E1,4.8857143E1,7.514286E1,1.0792857E2,1.4314285E2,3.9E1,2.5428572E2,1.1071428E1,1.8857143E1,2.7928572E1,3.592857E1,4.4714287E1,5.45E1,6.7E1,8.335714E1,9.778571E1,1.1478571E2,4.241708E1,9E0,3.5E1,1.8657143E2,1.7E1,4.7E1,8.142858E0,1.3142858E1,1.6928572E1,2.1142857E1,2.5785715E1,2.9785715E1,3.3285713E1,3.7857143E1,3.7E1,4.7E1,3.9E1,5.7642857E1,3.2E1,3.9E1,3.8E1,5.1E1,4.7E1,3.814439E1,4.5517838E1,3.814439E1,3.5E1,7.38461E0,6.008803E1,1.5928572E2,5.26269E0,3.9827236E1,9.106863E1,4.7904724E1,1.56E2,1E1,5.7827084E1,6.9752945E1,-1.3598618E1,-1.2739536E1,-1.2005748E1,-1.1310944E1,-1.0850534E1,-1.0290776E1,-9.61142E0,-8.863175E0,-8.089426E0,-7.441789E0,-6.871663E0,-6.316814E0,-5.84119E0,-5.133645E0,-4.5141916E0,-3.6368463E0,-2.8021991E0,-2.0191584E0,-1.4832588E0,-1.6076194E-1,-4.5595683E-2,1.0095484E0,1.6851158E0,2.7550194E0,2.8201714E0,4.6736097E0,5.113374E0,7.0562067E0,7.2535706E0,9.410527E0,1.020636E1,1.4283348E1,1.2536117E1,1.5500127E1,1.7091797E1,1.4399243E1,1.860459E1,1.5636291E1,2.212068E1,1.9381643E1,2.6069077E1,2.9304071E1,2.4651552E1,1.8354239E1,2.7121414E1,1.9203167E1,3.1380156E1,3.406162E1,3.8837097E1,3.4190487E1,4.1424347E1,1.6803818E1,5.3975403E1,4.5283855E1,4.498675E1,5.343399E1,3.912377E1,5.97242E1],"split_indices":[5,5,5,5,5,5,5,5,5,5,5,5,5,12,5,5,5,5,5,5,5,5,5,5,5,7,12,12,5,10,12,5,5,5,5,5,5,5,5,12,12,12,5,12,12,12,12,12,7,7,7,12,21,7,5,21,0,7,7,3,11,0,0,0,0,0,0,0,0,0,0,0,0,0,0,0,0,0,0,0,0,0,0,0,0,0,0,0,0,0,0,0,0,0,0,0,0,0,0,0,0,0,0,0,0,0,0,0,0,0,0,0,0,0,0,0,0,0,0,0,0],"split_type":[0,0,0,0,0,0,0,0,0,0,0,0,0,0,0,0,0,0,0,0,0,0,0,0,0,0,0,0,0,0,0,0,0,0,0,0,0,0,0,0,0,0,0,0,0,0,0,0,0,0,0,0,0,0,0,0,0,0,0,0,0,0,0,0,0,0,0,0,0,0,0,0,0,0,0,0,0,0,0,0,0,0,0,0,0,0,0,0,0,0,0,0,0,0,0,0,0,0,0,0,0,0,0,0,0,0,0,0,0,0,0,0,0,0,0,0,0,0,0,0,0],"sum_hessian":[7.4067E4,6.3707E4,1.036E4,4.1032E4,2.2675E4,8.075E3,2.285E3,2.1661E4,1.9371E4,1.4171E4,8.504E3,4.334E3,3.741E3,1.439E3,8.46E2,9.159E3,1.2502E4,9.517E3,9.854E3,6.62E3,7.551E3,5.03E3,3.474E3,2.02E3,2.314E3,1.437E3,2.304E3,7.34E2,7.05E2,5.65E2,2.81E2,4.253E3,4.906E3,6.034E3,6.468E3,5.457E3,4.06E3,5.211E3,4.643E3,3.211E3,3.409E3,3.813E3,3.738E3,2.092E3,2.938E3,2.032E3,1.442E3,8.85E2,1.135E3,8.45E2,1.469E3,9.2E2,5.17E2,1.51E2,2.153E3,4.94E2,2.4E2,2.9E2,4.15E2,2.96E2,2.69E2,7.4E1,2.07E2,8.7E2,3.383E3,2.363E3,2.543E3,3.213E3,2.821E3,3.283E3,3.185E3,2.882E3,2.575E3,2.301E3,1.759E3,2.291E3,2.92E3,2.002E3,2.641E3,2.286E3,9.25E2,3.045E3,3.64E2,2.704E3,1.109E3,1.753E3,1.985E3,9.98E2,1.094E3,1.81E3,1.128E3,1.04E3,9.92E2,1.377E3,6.5E1,7.06E2,1.79E2,8.28E2,3.07E2,7.33E2,1.12E2,8.99E2,5.7E2,6.26E2,2.94E2,4.95E2,2.2E1,1.36E2,1.5E1,1.314E3,8.39E2,1.23E2,3.71E2,2.87E2,3E0,1.06E2,3.09E2,6.4E1,2.32E2,1.4E1,2.55E2],"tree_param":{"num_deleted":"0","num_feature":"25","num_nodes":"121","size_leaf_vector":"1"}},{"base_weights":[9.1374975E-1,-9.046739E1,5.3756744E2,-1.6440952E2,4.004483E1,4.2740732E2,8.8487354E2,-2.0805339E2,-1.1734813E2,-6.9027042E0,1.2515103E2,3.2099872E2,5.488499E2,7.6117334E2,1.1282892E3,-2.3361891E2,-1.9013136E2,-1.4004544E2,-9.263389E1,-3.6017246E1,2.5795193E1,9.638311E1,1.7008984E2,2.7618103E2,3.7266028E2,4.7759784E2,5.935393E2,6.682609E2,8.2324786E2,1.0563483E3,1.267338E3,-2.4517546E2,-2.2221007E2,-2.0247775E2,-1.7746268E2,-1.5140987E2,-1.27773705E2,-1.03248474E2,-7.877958E1,-4.7395153E1,-1.9036753E1,5.2285132E0,4.0834206E1,7.118821E1,1.1023853E2,1.4658052E2,1.8348615E2,2.453562E2,3.0727176E2,3.478289E2,3.9133768E2,4.4118552E2,4.8628287E2,2.4295134E1,6.004522E2,6.93971E2,6.295631E2,7.832596E2,9.297981E2,9.8399524E2,1.124836E3,5.5252056E1,6.6104385E1,-1.289532E1,-1.2099311E1,-1.1440704E1,-1.0830554E1,-1.0348683E1,-9.786378E0,-9.162908E0,-8.558585E0,-7.9524155E0,-7.32562E0,-6.751352E0,-6.134641E0,-5.3750367E0,-4.4999623E0,-4.225785E0,-3.1488113E0,-2.7679996E0,-1.9799258E0,-1.3468252E0,-5.0903326E-1,-1.2170331E-2,9.112301E-1,1.6571325E0,2.7682028E0,2.8696501E0,4.384752E0,4.7925835E0,6.643758E0,6.188526E0,8.510909E0,8.992891E0,1.2683738E1,1.200421E1,1.7883322E1,1.5555842E1,1.0953154E1,1.632892E1,1.8690596E1,1.9799822E1,1.5233485E1,1.2808922E1,2.2206495E1,2.4429646E1,1.7092627E1,2.7351074E1,3.0687088E1,8.973E0,3.4739613E1,2.3560583E1,3.1825611E1,3.1220327E1,3.9657368E1,4.260323E1,5.0348484E1,4.0227978E1,5.0348297E1,3.8111324E1,5.7017757E1],"categories":[],"categories_nodes":[],"categories_segments":[],"categories_sizes":[],"default_left":[0,0,0,0,0,0,0,0,0,0,0,0,0,0,0,0,0,0,0,0,0,0,0,0,0,0,0,0,0,0,0,0,0,0,0,0,0,0,0,0,0,0,0,0,0,0,0,0,0,0,0,0,0,0,0,0,0,0,0,0,0,0,0,0,0,0,0,0,0,0,0,0,0,0,0,0,0,0,0,0,0,0,0,0,0,0,0,0,0,0,0,0,0,0,0,0,0,0,0,0,0,0,0,0,0,0,0,0,0,0,0,0,0,0,0,0,0,0,0,0,0],"id":4,"left_children":[1,3,5,7,9,11,13,15,17,19,21,23,25,27,29,31,33,35,37,39,41,43,45,47,49,51,53,55,57,59,61,63,65,67,69,71,73,75,77,79,81,83,85,87,89,91,93,95,97,99,101,103,105,-1,107,109,111,113,115,117,119,-1,-1,-1,-1,-1,-1,-1,-1,-1,-1,-1,-1,-1,-1,-1,-1,-1,-1,-1,-1,-1,-1,-1,-1,-1,-1,-1,-1,-1,-1,-1,-1,-1,-1,-1,-1,-1,-1,-1,-1,-1,-1,-1,-1,-1,-1,-1,-1,-1,-1,-1,-1,-1,-1,-1,-1,-1,-1,-1,-1],"loss_changes":[3.640339E9,6.12138E8,4.128604E8,8.314176E7,9.166224E7,1.058144E8,7.742861E7,9.580608E6,1.0917088E7,1.407697E7,1.0527648E7,1.0024416E7,1.1908864E7,9.410304E6,7.404288E6,1.086368E6,1.896544E6,1.39688E6,1.364064E6,1.510327E6,2.1540785E6,1.728856E6,9.7524E5,2.172944E6,8.04928E5,2.53824E5,1.456064E6,2.56576E5,3.664512E6,1.777088E6,1.142528E6,1.1176E5,1.1184E5,1.49168E5,1.91248E5,1.73736E5,1.63608E5,2.878E5,3.6199E5,2.88618E5,2.19403E5,2.0929162E5,4.477645E5,3.97567E5,1.032016E6,6.04376E5,4.6956E5,6.14584E5,3.2664E5,3.63816E5,3.4368E5,4.746E4,2.2864E5,0E0,1.228544E6,4.8128E4,1.8096E4,6.92192E5,7.9768E5,3.8928E5,7.73984E5,0E0,0E0,0E0,0E0,0E0,0E0,0E0,0E0,0E0,0E0,0E0,0E0,0E0,0E0,0E0,0E0,0E0,0E0,0E0,0E0,0E0,0E0,0E0,0E0,0E0,0E0,0E0,0E0,0E0,0E0,0E0,0E0,0E0,0E0,0E0,0E0,0E0,0E0,0E0,0E0,0E0,0E0,0E0,0E0,0E0,0E0,0E0,0E0,0E0,0E0,0E0,0E0,0E0,0E0,0E0,0E0,0E0,0E0,0E0,0E0],"parents":[2147483647,0,0,1,1,2,2,3,3,4,4,5,5,6,6,7,7,8,8,9,9,10,10,11,11,12,12,13,13,14,14,15,15,16,16,17,17,18,18,19,19,20,20,21,21,22,22,23,23,24,24,25,25,26,26,27,27,28,28,29,29,30,30,31,31,32,32,33,33,34,34,35,35,36,36,37,37,38,38,39,39,40,40,41,41,42,42,43,43,44,44,45,45,46,46,47,47,48,48,49,49,50,50,51,51,52,52,54,54,55,55,56,56,57,57,58,58,59,59,60,60],"right_children":[2,4,6,8,10,12,14,16,18,20,22,24,26,28,30,32,34,36,38,40,42,44,46,48,50,52,54,56,58,60,62,64,66,68,70,72,74,76,78,80,82,84,86,88,90,92,94,96,98,100,102,104,106,-1,108,110,112,114,116,118,120,-1,-1,-1,-1,-1,-1,-1,-1,-1,-1,-1,-1,-1,-1,-1,-1,-1,-1,-1,-1,-1,-1,-1,-1,-1,-1,-1,-1,-1,-1,-1,-1,-1,-1,-1,-1,-1,-1,-1,-1,-1,-1,-1,-1,-1,-1,-1,-1,-1,-1,-1,-1,-1,-1,-1,-1,-1,-1,-1,-1],"split_conditions":[8.885714E1,4.0142857E1,1.6678572E2,2.3E1,6.1785713E1,1.2464286E2,2.0664285E2,1.4642858E1,3.1285715E1,4.9642857E1,7.514286E1,1.0792857E2,1.3985715E2,3.5E1,2.5428572E2,1.1071428E1,1.8642857E1,2.7214285E1,3.592857E1,4.5714287E1,5.407143E1,6.614286E1,7.942857E1,9.778571E1,1.1478571E2,1.2757143E2,8E0,3E0,1.94E2,1.7E1,4.7E1,8.142858E0,1.2857142E1,1.6928572E1,2.0857143E1,2.4571428E1,2.8857143E1,3.9E1,1E1,4.292857E1,2.9E1,3.9E1,3.9E1,9E0,3.9E1,3.8E1,5.1E1,5.1E1,1.9E1,3E1,1.7E1,7.9E1,1.5E1,2.4295134E1,1.19E2,1.06E2,3E0,1.21E2,1.7E1,1.47E2,1E1,5.5252056E1,6.6104385E1,-1.289532E1,-1.2099311E1,-1.1440704E1,-1.0830554E1,-1.0348683E1,-9.786378E0,-9.162908E0,-8.558585E0,-7.9524155E0,-7.32562E0,-6.751352E0,-6.134641E0,-5.3750367E0,-4.4999623E0,-4.225785E0,-3.1488113E0,-2.7679996E0,-1.9799258E0,-1.3468252E0,-5.0903326E-1,-1.2170331E-2,9.112301E-1,1.6571325E0,2.7682028E0,2.8696501E0,4.384752E0,4.7925835E0,6.643758E0,6.188526E0,8.510909E0,8.992891E0,1.2683738E1,1.200421E1,1.7883322E1,1.5555842E1,1.0953154E1,1.632892E1,1.8690596E1,1.9799822E1,1.5233485E1,1.2808922E1,2.2206495E1,2.4429646E1,1.7092627E1,2.7351074E1,3.0687088E1,8.973E0,3.4739613E1,2.3560583E1,3.1825611E1,3.1220327E1,3.9657368E1,4.260323E1,5.0348484E1,4.0227978E1,5.0348297E1,3.8111324E1,5.7017757E1],"split_indices":[5,5,5,5,5,5,5,5,5,5,5,5,5,12,5,5,5,5,5,5,5,5,5,5,5,5,12,22,5,10,12,5,5,5,5,5,5,12,11,5,12,12,12,11,12,12,12,12,22,12,22,1,22,0,0,0,11,2,10,3,11,0,0,0,0,0,0,0,0,0,0,0,0,0,0,0,0,0,0,0,0,0,0,0,0,0,0,0,0,0,0,0,0,0,0,0,0,0,0,0,0,0,0,0,0,0,0,0,0,0,0,0,0,0,0,0,0,0,0,0,0],"split_type":[0,0,0,0,0,0,0,0,0,0,0,0,0,0,0,0,0,0,0,0,0,0,0,0,0,0,0,0,0,0,0,0,0,0,0,0,0,0,0,0,0,0,0,0,0,0,0,0,0,0,0,0,0,0,0,0,0,0,0,0,0,0,0,0,0,0,0,0,0,0,0,0,0,0,0,0,0,0,0,0,0,0,0,0,0,0,0,0,0,0,0,0,0,0,0,0,0,0,0,0,0,0,0,0,0,0,0,0,0,0,0,0,0,0,0,0,0,0,0,0,0],"sum_hessian":[7.423E4,6.343E4,1.08E4,4.049E4,2.294E4,8.201E3,2.599E3,2.1006E4,1.9484E4,1.4785E4,8.155E3,4.373E3,3.828E3,1.726E3,8.73E2,8.652E3,1.2354E4,1.0154E4,9.33E3,7.821E3,6.964E3,4.974E3,3.181E3,2.345E3,2.028E3,1.48E3,2.348E3,6.96E2,1.03E3,5.81E2,2.92E2,4.288E3,4.364E3,6.249E3,6.105E3,5.266E3,4.888E3,5.279E3,4.051E3,4.682E3,3.139E3,2.942E3,4.022E3,1.767E3,3.207E3,1.159E3,2.022E3,1.182E3,1.163E3,8.79E2,1.149E3,2.95E2,1.185E3,1.46E2,2.202E3,4.08E2,2.88E2,7.55E2,2.75E2,2.9E2,2.91E2,7.9E1,2.13E2,8.43E2,3.445E3,1.984E3,2.38E3,3.733E3,2.516E3,3.163E3,2.942E3,2.045E3,3.221E3,2.003E3,2.885E3,3.991E3,1.288E3,2.969E3,1.082E3,2.313E3,2.369E3,1.658E3,1.481E3,2.071E3,8.71E2,2.632E3,1.39E3,9.65E2,8.02E2,1.964E3,1.243E3,5.93E2,5.66E2,1.926E3,9.6E1,1.132E3,5E1,1.112E3,5.1E1,4.91E2,3.88E2,1.087E3,6.2E1,6E0,2.89E2,1.164E3,2.1E1,4.47E2,1.755E3,1E0,4.07E2,1.5E1,2.73E2,4.8E1,7.07E2,1.43E2,1.32E2,3.7E1,2.53E2,1.4E1,2.77E2],"tree_param":{"num_deleted":"0","num_feature":"25","num_nodes":"121","size_leaf_vector":"1"}},{"base_weights":[-5.791526E-1,-8.334255E1,5.2319604E2,-1.507658E2,5.009787E1,4.095213E2,8.110951E2,-1.9455408E2,-1.0258106E2,-6.680498E-1,1.22176056E2,3.1566394E2,5.1150568E2,7.0730786E2,1.0488583E3,-2.1503918E2,-1.7196167E2,-1.25103874E2,-7.605834E1,-1.9195852E1,3.0348074E1,8.971212E1,1.6697607E2,2.727991E2,3.5289212E2,4.5935373E2,5.63513E2,6.3612134E2,7.8905396E2,9.2959674E2,1.1413119E3,-2.2934111E2,-2.0279718E2,-1.8161574E2,-1.6110968E2,-1.3607034E2,-1.1268914E2,-8.8917336E1,-6.3180206E1,-3.2184597E1,-4.956278E0,8.152932E0,3.8748413E1,7.5449165E1,1.1286547E2,1.9681094E2,1.479122E2,3.0933942E2,2.2795364E2,3.784508E2,3.1192596E2,4.927999E2,3.9910074E2,5.9487744E2,5.1883203E2,6.1314624E2,6.675526E2,6.0603375E2,8.132966E2,9.844617E2,7.7241754E2,9.773419E2,1.1915062E3,-1.1774607E1,-1.1103022E1,-1.0442983E1,-9.905389E0,-9.354076E0,-8.814659E0,-8.2972555E0,-7.731174E0,-7.1374726E0,-6.4764414E0,-5.9948764E0,-5.259245E0,-5.1747828E0,-4.2272334E0,-3.871626E0,-2.8467739E0,-2.2118266E0,-1.1602951E0,-1.0187024E0,2.6055855E-1,1.210729E0,-1.944024E-1,1.3344314E0,2.7103052E0,5.609369E0,3.2988918E0,6.6326637E0,4.380537E0,9.242938E0,1.1955886E1,5.862898E0,8.719993E0,1.3668055E1,1.6283031E1,1.01853695E1,1.4010234E1,1.796763E1,2.0338736E1,1.3950502E1,1.652422E1,2.360993E1,2.664745E1,2.05253E1,1.2136207E1,2.8863205E1,3.3402E1,2.2570404E1,2.6762775E1,2.5393442E1,3.0942444E1,3.4894955E1,3.060207E1,3.0996979E1,1.2852053E1,3.7684395E1,4.381655E1,3.4322186E1,5.067191E1,3.193176E1,4.7016678E1,2.3489754E1,4.954553E1,4.929351E1,6.0685677E1],"categories":[],"categories_nodes":[],"categories_segments":[],"categories_sizes":[],"default_left":[0,0,0,0,0,0,0,0,0,0,0,0,0,0,0,0,0,0,0,0,0,0,0,0,0,0,0,0,0,0,0,0,0,0,0,0,0,0,0,0,0,0,0,0,0,0,0,0,0,0,0,0,0,0,0,0,0,0,0,0,0,0,0,0,0,0,0,0,0,0,0,0,0,0,0,0,0,0,0,0,0,0,0,0,0,0,0,0,0,0,0,0,0,0,0,0,0,0,0,0,0,0,0,0,0,0,0,0,0,0,0,0,0,0,0,0,0,0,0,0,0,0,0,0,0,0,0],"id":5,"left_children":[1,3,5,7,9,11,13,15,17,19,21,23,25,27,29,31,33,35,37,39,41,43,45,47,49,51,53,55,57,59,61,63,65,67,69,71,73,75,77,79,81,83,85,87,89,91,93,95,97,99,101,103,105,107,109,111,113,115,117,119,121,123,125,-1,-1,-1,-1,-1,-1,-1,-1,-1,-1,-1,-1,-1,-1,-1,-1,-1,-1,-1,-1,-1,-1,-1,-1,-1,-1,-1,-1,-1,-1,-1,-1,-1,-1,-1,-1,-1,-1,-1,-1,-1,-1,-1,-1,-1,-1,-1,-1,-1,-1,-1,-1,-1,-1,-1,-1,-1,-1,-1,-1,-1,-1,-1,-1],"loss_changes":[3.2108913E9,5.7548186E8,3.3043814E8,8.963718E7,7.856494E7,6.921626E7,6.983386E7,1.02656E7,1.2076992E7,7.240732E6,1.2889792E7,5.93104E6,9.158144E6,1.1101568E7,8.498688E6,1.996864E6,1.080288E6,1.474096E6,1.533464E6,1.4587588E6,8.78221E5,1.691204E6,2.09068E6,2.813536E6,1.994864E6,3.307776E6,2.121408E6,3.64096E5,3.606848E6,2.551072E6,2.819008E6,1.88416E5,1.37648E5,1.2984E5,1.31E5,2.35088E5,2.65264E5,2.87544E5,4.09182E5,4.453425E5,5.9014844E5,2.5054452E5,6.35725E5,1.101894E6,9.67858E5,6.89E5,1.829188E6,4.78816E5,9.48832E5,5.23488E5,3.84888E5,6.6976E5,1.01684E6,9.18464E5,5.58992E5,6.4544E4,3.15744E5,3.84188E5,2.394304E6,1.730912E6,1.735744E6,3.53992E5,4.74816E5,0E0,0E0,0E0,0E0,0E0,0E0,0E0,0E0,0E0,0E0,0E0,0E0,0E0,0E0,0E0,0E0,0E0,0E0,0E0,0E0,0E0,0E0,0E0,0E0,0E0,0E0,0E0,0E0,0E0,0E0,0E0,0E0,0E0,0E0,0E0,0E0,0E0,0E0,0E0,0E0,0E0,0E0,0E0,0E0,0E0,0E0,0E0,0E0,0E0,0E0,0E0,0E0,0E0,0E0,0E0,0E0,0E0,0E0,0E0,0E0,0E0,0E0,0E0,0E0],"parents":[2147483647,0,0,1,1,2,2,3,3,4,4,5,5,6,6,7,7,8,8,9,9,10,10,11,11,12,12,13,13,14,14,15,15,16,16,17,17,18,18,19,19,20,20,21,21,22,22,23,23,24,24,25,25,26,26,27,27,28,28,29,29,30,30,31,31,32,32,33,33,34,34,35,35,36,36,37,37,38,38,39,39,40,40,41,41,42,42,43,43,44,44,45,45,46,46,47,47,48,48,49,49,50,50,51,51,52,52,53,53,54,54,55,55,56,56,57,57,58,58,59,59,60,60,61,61,62,62],"right_children":[2,4,6,8,10,12,14,16,18,20,22,24,26,28,30,32,34,36,38,40,42,44,46,48,50,52,54,56,58,60,62,64,66,68,70,72,74,76,78,80,82,84,86,88,90,92,94,96,98,100,102,104,106,108,110,112,114,116,118,120,122,124,126,-1,-1,-1,-1,-1,-1,-1,-1,-1,-1,-1,-1,-1,-1,-1,-1,-1,-1,-1,-1,-1,-1,-1,-1,-1,-1,-1,-1,-1,-1,-1,-1,-1,-1,-1,-1,-1,-1,-1,-1,-1,-1,-1,-1,-1,-1,-1,-1,-1,-1,-1,-1,-1,-1,-1,-1,-1,-1,-1,-1,-1,-1,-1,-1],"split_conditions":[9.442857E1,4.257143E1,1.6371428E2,2.3857143E1,6.157143E1,1.2571429E2,2.1114285E2,1.6428572E1,3.3E1,5.2857143E1,7.642857E1,1.0871429E2,1.44E2,3.8E1,4.7E1,1.2E1,2.0285715E1,2.8571428E1,3.742857E1,4.7529064E1,4.2E1,3.9E1,2.4446249E1,3.1244808E1,3.627146E1,3.9470303E1,4.014557E1,2.9E1,1.24E2,2.6E1,2.3E2,9.837259E0,1.4018916E1,1.8285715E1,2.2285715E1,2.6142857E1,2.9E1,2.5E1,3.1E1,4E1,4.1E1,1E0,3.5E1,4E0,3E0,8.9E1,3.9E1,9.914286E1,4.7E1,1.1814286E2,1.1557143E2,1.3728572E2,1.7E1,3.9E1,1.08E2,1E1,6.0219044E1,4E0,1.8E1,1E1,2.5772357E2,4.624973E0,5.1357985E0,-1.1774607E1,-1.1103022E1,-1.0442983E1,-9.905389E0,-9.354076E0,-8.814659E0,-8.2972555E0,-7.731174E0,-7.1374726E0,-6.4764414E0,-5.9948764E0,-5.259245E0,-5.1747828E0,-4.2272334E0,-3.871626E0,-2.8467739E0,-2.2118266E0,-1.1602951E0,-1.0187024E0,2.6055855E-1,1.210729E0,-1.944024E-1,1.3344314E0,2.7103052E0,5.609369E0,3.2988918E0,6.6326637E0,4.380537E0,9.242938E0,1.1955886E1,5.862898E0,8.719993E0,1.3668055E1,1.6283031E1,1.01853695E1,1.4010234E1,1.796763E1,2.0338736E1,1.3950502E1,1.652422E1,2.360993E1,2.664745E1,2.05253E1,1.2136207E1,2.8863205E1,3.3402E1,2.2570404E1,2.6762775E1,2.5393442E1,3.0942444E1,3.4894955E1,3.060207E1,3.0996979E1,1.2852053E1,3.7684395E1,4.381655E1,3.4322186E1,5.067191E1,3.193176E1,4.7016678E1,2.3489754E1,4.954553E1,4.929351E1,6.0685677E1],"split_indices":[4,4,4,4,4,4,4,4,4,4,4,4,4,12,12,4,4,4,4,8,2,12,6,6,6,6,6,12,2,10,4,8,8,4,4,4,2,2,2,2,2,19,12,22,19,4,12,4,12,4,4,4,22,12,2,12,6,9,10,11,8,21,21,0,0,0,0,0,0,0,0,0,0,0,0,0,0,0,0,0,0,0,0,0,0,0,0,0,0,0,0,0,0,0,0,0,0,0,0,0,0,0,0,0,0,0,0,0,0,0,0,0,0,0,0,0,0,0,0,0,0,0,0,0,0,0,0],"split_type":[0,0,0,0,0,0,0,0,0,0,0,0,0,0,0,0,0,0,0,0,0,0,0,0,0,0,0,0,0,0,0,0,0,0,0,0,0,0,0,0,0,0,0,0,0,0,0,0,0,0,0,0,0,0,0,0,0,0,0,0,0,0,0,0,0,0,0,0,0,0,0,0,0,0,0,0,0,0,0,0,0,0,0,0,0,0,0,0,0,0,0,0,0,0,0,0,0,0,0,0,0,0,0,0,0,0,0,0,0,0,0,0,0,0,0,0,0,0,0,0,0,0,0,0,0,0,0],"sum_hessian":[7.4068E4,6.3962E4,1.0106E4,4.2492E4,2.147E4,7.247E3,2.859E3,2.226E4,2.0232E4,1.2598E4,8.872E3,3.776E3,3.471E3,1.993E3,8.66E2,1.167E4,1.059E4,1.0939E4,9.293E3,7.887E3,4.711E3,5.146E3,3.726E3,1.759E3,2.017E3,1.738E3,1.733E3,1.07E3,9.23E2,3.83E2,4.83E2,5.374E3,6.296E3,5.596E3,4.994E3,5.803E3,5.136E3,4.647E3,4.646E3,4.124E3,3.763E3,1.294E3,3.417E3,3.187E3,1.959E3,1.449E3,2.277E3,9.66E2,7.93E2,1.237E3,7.8E2,1.113E3,6.25E2,1.011E3,7.22E2,6.3E2,4.4E2,1.11E2,8.12E2,2.8E2,1.03E2,1.18E2,3.65E2,2.896E3,2.478E3,2.727E3,3.569E3,2.744E3,2.852E3,2.847E3,2.147E3,2.861E3,2.942E3,2.612E3,2.524E3,1.067E3,3.58E3,1.412E3,3.234E3,1.759E3,2.365E3,1.495E3,2.268E3,5.54E2,7.4E2,1.921E3,1.496E3,6.51E2,2.536E3,1.096E3,8.63E2,1.134E3,3.15E2,1.058E3,1.219E3,3.07E2,6.59E2,5.45E2,2.48E2,7.47E2,4.9E2,2.87E2,4.93E2,7.44E2,3.69E2,5.81E2,4.4E1,8.22E2,1.89E2,1.47E2,5.75E2,3.7E1,5.93E2,2.77E2,1.63E2,1.06E2,5E0,4.24E2,3.88E2,2.7E1,2.53E2,6E1,4.3E1,4E0,1.14E2,4E1,3.25E2],"tree_param":{"num_deleted":"0","num_feature":"25","num_nodes":"127","size_leaf_vector":"1"}},{"base_weights":[-2.8543803E-1,-8.232119E1,4.8648105E2,-1.4941386E2,3.467611E1,3.7119714E2,7.571444E2,-1.8787305E2,-1.0689019E2,-1.1183333E1,1.0654115E2,2.9082043E2,4.8151785E2,6.3528674E2,9.70215E2,-2.1102812E2,-1.7182185E2,-1.2733353E2,-8.545682E1,-3.6309822E1,1.6768875E1,8.054651E1,1.5310637E2,2.3894218E2,3.2568088E2,4.3053946E2,5.238532E2,5.8536975E2,6.8028125E2,8.6475244E2,1.0727472E3,-2.2141544E2,-2.0069502E2,-1.8305556E2,-1.603075E2,-1.3811977E2,-1.1776117E2,-9.656994E1,-7.45307E1,-4.6459984E1,-2.408873E1,3.5454016E0,3.1853613E1,5.8852192E1,9.816275E1,1.3074321E2,1.6576561E2,2.1445045E2,2.6269095E2,3.0438376E2,3.5229218E2,4.431792E2,3.934292E2,5.397988E2,4.561153E2,1.2338242E1,5.8686847E2,6.257022E2,7.1803265E2,7.9801447E2,9.3009534E2,9.5282465E2,1.1417617E3,-1.16845665E1,-1.0916561E1,-1.0334482E1,-9.773975E0,-9.3341255E0,-8.8811865E0,-8.218459E0,-7.595939E0,-7.0986285E0,-6.4282465E0,-6.2046466E0,-5.6375737E0,-5.0015635E0,-4.282273E0,-4.021128E0,-2.950845E0,-1.7410477E0,-2.4861457E0,-1.3363174E0,-6.991224E-2,8.113267E-1,-1.4629245E-1,1.3732349E0,2.6010036E0,2.3919258E0,3.5457985E0,4.219863E0,5.9332023E0,6.2683744E0,1.1005955E1,9.024643E0,7.3805604E0,2.0696518E1,1.0557946E1,1.2833361E1,1.9855963E1,1.5578952E1,1.3318206E1,1.8656652E1,1.6289864E1,2.1374022E1,2.466876E1,2.1007978E1,1.7851215E1,2.6109262E1,3.077532E1,2.3678953E1,2.0587545E1,2.4555382E1,2.9605825E1,2.8928959E1,3.370486E1,3.3381603E1,3.7249172E1,2.6101461E1,4.034802E1,3.4183193E1,4.8856045E1,5.0073166E1,4.260308E1,4.823977E1,5.824416E1],"categories":[],"categories_nodes":[],"categories_segments":[],"categories_sizes":[],"default_left":[0,0,0,0,0,0,0,0,0,0,0,0,0,0,0,0,0,0,0,0,0,0,0,0,0,0,0,0,0,0,0,0,0,0,0,0,0,0,0,0,0,0,0,0,0,0,0,0,0,0,0,0,0,0,0,0,0,0,0,0,0,0,0,0,0,0,0,0,0,0,0,0,0,0,0,0,0,0,0,0,0,0,0,0,0,0,0,0,0,0,0,0,0,0,0,0,0,0,0,0,0,0,0,0,0,0,0,0,0,0,0,0,0,0,0,0,0,0,0,0,0,0,0,0,0],"id":6,"left_children":[1,3,5,7,9,11,13,15,17,19,21,23,25,27,29,31,33,35,37,39,41,43,45,47,49,51,53,55,57,59,61,63,65,67,69,71,73,75,77,79,81,83,85,87,89,91,93,95,97,99,101,103,105,107,109,-1,111,113,115,117,119,121,123,-1,-1,-1,-1,-1,-1,-1,-1,-1,-1,-1,-1,-1,-1,-1,-1,-1,-1,-1,-1,-1,-1,-1,-1,-1,-1,-1,-1,-1,-1,-1,-1,-1,-1,-1,-1,-1,-1,-1,-1,-1,-1,-1,-1,-1,-1,-1,-1,-1,-1,-1,-1,-1,-1,-1,-1,-1,-1,-1,-1,-1,-1],"loss_changes":[2.955905E9,4.972578E8,3.3284378E8,6.5822144E7,7.60921E7,6.626656E7,8.215782E7,7.820352E6,8.367792E6,9.900103E6,1.0874424E7,7.762016E6,6.583552E6,4.163328E6,1.159424E7,8.84E5,1.586208E6,9.94048E5,1.126656E6,9.19674E5,1.330968E6,2.200888E6,8.90192E5,9.59216E5,1.360608E6,4.9968E5,1.610496E6,3.47424E5,1.738912E6,1.769632E6,3.737216E6,1.1192E5,9.5504E4,9.1248E4,1.85472E5,1.50896E5,1.50664E5,1.66352E5,4.26048E5,1.52229E5,2.01653E5,2.919448E5,2.744535E5,3.40732E5,8.88826E5,5.34062E5,5.2226E5,4.80556E5,6.12288E5,3.12568E5,5.10688E5,6.27552E5,2.1394E5,1.526816E6,6.3776E4,0E0,1.94208E5,6.17984E5,3.46144E5,2.99664E5,2.63472E6,2.20016E5,3.696E5,0E0,0E0,0E0,0E0,0E0,0E0,0E0,0E0,0E0,0E0,0E0,0E0,0E0,0E0,0E0,0E0,0E0,0E0,0E0,0E0,0E0,0E0,0E0,0E0,0E0,0E0,0E0,0E0,0E0,0E0,0E0,0E0,0E0,0E0,0E0,0E0,0E0,0E0,0E0,0E0,0E0,0E0,0E0,0E0,0E0,0E0,0E0,0E0,0E0,0E0,0E0,0E0,0E0,0E0,0E0,0E0,0E0,0E0,0E0,0E0,0E0,0E0],"parents":[2147483647,0,0,1,1,2,2,3,3,4,4,5,5,6,6,7,7,8,8,9,9,10,10,11,11,12,12,13,13,14,14,15,15,16,16,17,17,18,18,19,19,20,20,21,21,22,22,23,23,24,24,25,25,26,26,27,27,28,28,29,29,30,30,31,31,32,32,33,33,34,34,35,35,36,36,37,37,38,38,39,39,40,40,41,41,42,42,43,43,44,44,45,45,46,46,47,47,48,48,49,49,50,50,51,51,52,52,53,53,54,54,56,56,57,57,58,58,59,59,60,60,61,61,62,62],"right_children":[2,4,6,8,10,12,14,16,18,20,22,24,26,28,30,32,34,36,38,40,42,44,46,48,50,52,54,56,58,60,62,64,66,68,70,72,74,76,78,80,82,84,86,88,90,92,94,96,98,100,102,104,106,108,110,-1,112,114,116,118,120,122,124,-1,-1,-1,-1,-1,-1,-1,-1,-1,-1,-1,-1,-1,-1,-1,-1,-1,-1,-1,-1,-1,-1,-1,-1,-1,-1,-1,-1,-1,-1,-1,-1,-1,-1,-1,-1,-1,-1,-1,-1,-1,-1,-1,-1,-1,-1,-1,-1,-1,-1,-1,-1,-1,-1,-1,-1,-1,-1,-1,-1,-1,-1],"split_conditions":[8.885714E1,3.9785713E1,1.5928572E2,2.3E1,5.992857E1,1.2464286E2,1.94E2,1.4642858E1,3.1E1,4.8857143E1,7.514286E1,1.0321429E2,1.3985715E2,3.3E1,2.2528572E2,1.1071428E1,1.8642857E1,2.6714285E1,3.5142857E1,4.4714287E1,5.407143E1,6.614286E1,7.942857E1,9.521429E1,1.1478571E2,4.6675934E1,5.1836597E1,4.983607E0,1.7564285E2,1.7E1,4.7E1,8.142858E0,1.2857142E1,1.6928572E1,2.15E1,3.9E1,2.8571428E1,3.9E1,3.9E1,1E0,4.7E1,1E0,7.3E1,3.4E1,3.8E1,5.1E1,2.9940601E1,1.6750267E1,5.1E1,4.34491E1,3.5905018E1,3.9E1,1.5E1,4E0,6.008803E1,1.2338242E1,1E1,1.7E1,3.9E1,1.7748431E2,4E1,3E0,5.075174E0,-1.16845665E1,-1.0916561E1,-1.0334482E1,-9.773975E0,-9.3341255E0,-8.8811865E0,-8.218459E0,-7.595939E0,-7.0986285E0,-6.4282465E0,-6.2046466E0,-5.6375737E0,-5.0015635E0,-4.282273E0,-4.021128E0,-2.950845E0,-1.7410477E0,-2.4861457E0,-1.3363174E0,-6.991224E-2,8.113267E-1,-1.4629245E-1,1.3732349E0,2.6010036E0,2.3919258E0,3.5457985E0,4.219863E0,5.9332023E0,6.2683744E0,1.1005955E1,9.024643E0,7.3805604E0,2.0696518E1,1.0557946E1,1.2833361E1,1.9855963E1,1.5578952E1,1.3318206E1,1.8656652E1,1.6289864E1,2.1374022E1,2.466876E1,2.1007978E1,1.7851215E1,2.6109262E1,3.077532E1,2.3678953E1,2.0587545E1,2.4555382E1,2.9605825E1,2.8928959E1,3.370486E1,3.3381603E1,3.7249172E1,2.6101461E1,4.034802E1,3.4183193E1,4.8856045E1,5.0073166E1,4.260308E1,4.823977E1,5.824416E1],"split_indices":[5,5,5,5,5,5,5,5,5,5,5,5,5,12,5,5,5,5,5,5,5,5,5,5,5,7,7,21,5,10,12,5,5,5,5,12,5,12,12,19,12,19,3,12,12,12,7,7,12,7,7,12,10,14,7,0,12,10,12,8,12,22,21,0,0,0,0,0,0,0,0,0,0,0,0,0,0,0,0,0,0,0,0,0,0,0,0,0,0,0,0,0,0,0,0,0,0,0,0,0,0,0,0,0,0,0,0,0,0,0,0,0,0,0,0,0,0,0,0,0,0,0,0,0,0],"split_type":[0,0,0,0,0,0,0,0,0,0,0,0,0,0,0,0,0,0,0,0,0,0,0,0,0,0,0,0,0,0,0,0,0,0,0,0,0,0,0,0,0,0,0,0,0,0,0,0,0,0,0,0,0,0,0,0,0,0,0,0,0,0,0,0,0,0,0,0,0,0,0,0,0,0,0,0,0,0,0,0,0,0,0,0,0,0,0,0,0,0,0,0,0,0,0,0,0,0,0,0,0,0,0,0,0,0,0,0,0,0,0,0,0,0,0,0,0,0,0,0,0,0,0,0,0],"sum_hessian":[7.4021E4,6.3346E4,1.0675E4,4.0259E4,2.3087E4,7.488E3,3.187E3,2.1138E4,1.9121E4,1.4094E4,8.993E3,4.334E3,3.154E3,2.03E3,1.157E3,8.649E3,1.2489E4,9.784E3,9.337E3,7.422E3,6.672E3,5.773E3,3.22E3,1.745E3,2.589E3,1.436E3,1.718E3,9.69E2,1.061E3,5.75E2,5.82E2,4.303E3,4.346E3,6.314E3,6.175E3,4.594E3,5.19E3,4.625E3,4.712E3,4.053E3,3.369E3,3.556E3,3.116E3,2.589E3,3.184E3,1.168E3,2.052E3,8.64E2,8.81E2,1.445E3,1.144E3,1.063E3,3.73E2,1.385E3,3.33E2,5E0,9.64E2,4.41E2,6.2E2,2.91E2,2.84E2,2.18E2,3.64E2,8.49E2,3.454E3,2.004E3,2.342E3,3.766E3,2.548E3,4.148E3,2.027E3,3.264E3,1.33E3,2.282E3,2.908E3,3.506E3,1.119E3,3.412E3,1.3E3,8.9E2,3.163E3,3.018E3,3.51E2,1.201E3,2.355E3,2.561E3,5.55E2,1.356E3,1.233E3,1.908E3,1.276E3,1.104E3,6.4E1,1.128E3,9.24E2,1.2E1,8.52E2,8.46E2,3.5E1,1.209E3,2.36E2,6.33E2,5.11E2,8.17E2,2.46E2,2.09E2,1.64E2,1.13E3,2.55E2,2.32E2,1.01E2,5.5E1,9.09E2,2.3E2,2.11E2,2.25E2,3.95E2,1.1E1,2.8E2,4.8E1,2.36E2,1.41E2,7.7E1,4.7E1,3.17E2],"tree_param":{"num_deleted":"0","num_feature":"25","num_nodes":"125","size_leaf_vector":"1"}},{"base_weights":[2.6519132E-1,-7.7842674E1,4.6118524E2,-1.4001093E2,3.653445E1,3.6601035E2,7.589832E2,-1.7703337E2,-9.771322E1,-4.7182378E-1,1.1361558E2,2.8166232E2,4.7954468E2,6.250083E2,9.249012E2,-1.9656117E2,-1.5849985E2,-1.1414301E2,-7.2640945E1,-2.5588644E1,3.104732E1,8.810458E1,1.458721E2,2.3722371E2,3.2617075E2,4.2552487E2,5.17802E2,5.751064E2,6.6726855E2,8.281211E2,1.01812115E3,-2.0779399E2,-1.8465056E2,-1.6874207E2,-1.4847835E2,-1.24925316E2,-1.0222076E2,-8.0052635E1,-5.8657307E1,-3.846207E1,-1.0106786E1,1.8597183E1,4.7250957E1,7.486845E1,1.0715777E2,1.3130247E2,1.6312968E2,2.0985086E2,2.6425458E2,3.08229E2,3.5545764E2,4.3936246E2,3.8580078E2,5.036764E2,5.666824E2,5.960619E2,5.407802E2,6.718488E2,1.8531828E1,7.6197833E2,8.943768E2,8.9516864E2,1.0880006E3,-1.0732206E1,-1.0090623E1,-9.5793915E0,-9.053479E0,-8.617862E0,-8.129936E0,-7.599888E0,-7.011692E0,-6.5081277E0,-5.879324E0,-5.432647E0,-4.8590846E0,-4.2249713E0,-3.3608003E0,-2.3877728E0,-3.1404245E0,-2.4248846E0,-1.6947727E0,-7.987639E-1,2.576538E-1,7.608425E-1,2.0854485E0,1.8545061E0,2.9395568E0,5.4407277E0,3.1350477E0,4.374587E0,6.5443587E0,3.1586955E0,7.4596467E0,6.8754516E0,9.452834E0,2.0055767E1,1.0359145E1,1.379734E1,1.1560501E1,1.4556106E1,1.6524473E1,1.8857262E1,1.5771463E1,2.0951445E1,2.374769E1,1.5116134E1,1.9578293E1,2.6239166E1,2.3480719E1,3.402101E1,2.652721E1,9.465308E0,2.9880539E1,7.1191607E0,2.7087683E1,2.721383E1,3.3936546E1,3.1913305E1,3.9059933E1,4.817715E1,3.6317123E1,1.7090008E1,4.49355E1,5.2321056E1,6.053739E1],"categories":[],"categories_nodes":[],"categories_segments":[],"categories_sizes":[],"default_left":[0,0,0,0,0,0,0,0,0,0,0,0,0,0,0,0,0,0,0,0,0,0,0,0,0,0,0,0,0,0,0,0,0,0,0,0,0,0,0,0,0,0,0,0,0,0,0,0,0,0,0,0,0,0,0,0,0,0,0,0,0,0,0,0,0,0,0,0,0,0,0,0,0,0,0,0,0,0,0,0,0,0,0,0,0,0,0,0,0,0,0,0,0,0,0,0,0,0,0,0,0,0,0,0,0,0,0,0,0,0,0,0,0,0,0,0,0,0,0,0,0,0,0,0,0],"id":7,"left_children":[1,3,5,7,9,11,13,15,17,19,21,23,25,27,29,31,33,35,37,39,41,43,45,47,49,51,53,55,57,59,61,63,65,67,69,71,73,75,77,79,81,83,85,87,89,91,93,95,97,99,101,103,105,107,109,111,113,115,-1,117,119,121,123,-1,-1,-1,-1,-1,-1,-1,-1,-1,-1,-1,-1,-1,-1,-1,-1,-1,-1,-1,-1,-1,-1,-1,-1,-1,-1,-1,-1,-1,-1,-1,-1,-1,-1,-1,-1,-1,-1,-1,-1,-1,-1,-1,-1,-1,-1,-1,-1,-1,-1,-1,-1,-1,-1,-1,-1,-1,-1,-1,-1,-1,-1],"loss_changes":[2.6670979E9,4.5044896E8,3.039831E8,6.4251456E7,6.363329E7,7.778803E7,5.719475E7,7.889088E6,7.883504E6,1.1933494E7,5.941632E6,9.161344E6,6.944768E6,2.655168E6,9.613184E6,1.386752E6,1.127936E6,1.474816E6,7.81636E5,1.6715775E6,1.3477365E6,1.011586E6,7.81672E5,1.676688E6,1.115296E6,6.23712E5,1.112768E6,1.58176E5,8.0256E5,1.833984E6,4.060928E6,1.8096E5,9.3968E4,9.5184E4,1.4368E5,2.18072E5,1.67744E5,2.77218E5,1.16114E5,2.08252E5,3.4127678E5,2.9483612E5,3.383365E5,9.79928E5,7.60874E5,2.107716E6,9.425E5,5.12912E5,3.89792E5,4.57104E5,6.4412E5,5.70256E5,6.498E4,8.8944E5,1.472192E6,1.42016E5,2.524E4,2.9872E5,0E0,2.00464E5,2.566016E6,1.20032E5,6.16352E5,0E0,0E0,0E0,0E0,0E0,0E0,0E0,0E0,0E0,0E0,0E0,0E0,0E0,0E0,0E0,0E0,0E0,0E0,0E0,0E0,0E0,0E0,0E0,0E0,0E0,0E0,0E0,0E0,0E0,0E0,0E0,0E0,0E0,0E0,0E0,0E0,0E0,0E0,0E0,0E0,0E0,0E0,0E0,0E0,0E0,0E0,0E0,0E0,0E0,0E0,0E0,0E0,0E0,0E0,0E0,0E0,0E0,0E0,0E0,0E0,0E0,0E0],"parents":[2147483647,0,0,1,1,2,2,3,3,4,4,5,5,6,6,7,7,8,8,9,9,10,10,11,11,12,12,13,13,14,14,15,15,16,16,17,17,18,18,19,19,20,20,21,21,22,22,23,23,24,24,25,25,26,26,27,27,28,28,29,29,30,30,31,31,32,32,33,33,34,34,35,35,36,36,37,37,38,38,39,39,40,40,41,41,42,42,43,43,44,44,45,45,46,46,47,47,48,48,49,49,50,50,51,51,52,52,53,53,54,54,55,55,56,56,57,57,59,59,60,60,61,61,62,62],"right_children":[2,4,6,8,10,12,14,16,18,20,22,24,26,28,30,32,34,36,38,40,42,44,46,48,50,52,54,56,58,60,62,64,66,68,70,72,74,76,78,80,82,84,86,88,90,92,94,96,98,100,102,104,106,108,110,112,114,116,-1,118,120,122,124,-1,-1,-1,-1,-1,-1,-1,-1,-1,-1,-1,-1,-1,-1,-1,-1,-1,-1,-1,-1,-1,-1,-1,-1,-1,-1,-1,-1,-1,-1,-1,-1,-1,-1,-1,-1,-1,-1,-1,-1,-1,-1,-1,-1,-1,-1,-1,-1,-1,-1,-1,-1,-1,-1,-1,-1,-1,-1,-1,-1,-1,-1],"split_conditions":[8.885714E1,4.0857143E1,1.6678572E2,2.3642857E1,6.3785713E1,1.2757143E2,1.94E2,1.5785714E1,3.3285713E1,5.1285713E1,7.514286E1,1.0792857E2,1.4314285E2,3.5E1,2.2528572E2,1.2142858E1,1.95E1,2.8571428E1,3.7857143E1,4.6357143E1,5.7642857E1,3.8E1,3.9E1,9.778571E1,1.1957143E2,4.6675934E1,3.9E1,3E0,9.106863E1,1.7E1,4.7E1,9.714286E0,1.3642858E1,1.8071428E1,3.5E1,2.65E1,3.0571428E1,3.9E1,1.181264E1,4.257143E1,3.9E1,7.7E1,3.4E1,2.1698736E1,1.8E1,2E0,1.7E1,1.6750267E1,3.814439E1,3.1E1,3.9383434E1,3.5E1,8.1E1,4.34491E1,4.076231E1,4.983607E0,1.03E2,1.12E2,1.8531828E1,1.37E2,2.6E1,1E1,5.1E1,-1.0732206E1,-1.0090623E1,-9.5793915E0,-9.053479E0,-8.617862E0,-8.129936E0,-7.599888E0,-7.011692E0,-6.5081277E0,-5.879324E0,-5.432647E0,-4.8590846E0,-4.2249713E0,-3.3608003E0,-2.3877728E0,-3.1404245E0,-2.4248846E0,-1.6947727E0,-7.987639E-1,2.576538E-1,7.608425E-1,2.0854485E0,1.8545061E0,2.9395568E0,5.4407277E0,3.1350477E0,4.374587E0,6.5443587E0,3.1586955E0,7.4596467E0,6.8754516E0,9.452834E0,2.0055767E1,1.0359145E1,1.379734E1,1.1560501E1,1.4556106E1,1.6524473E1,1.8857262E1,1.5771463E1,2.0951445E1,2.374769E1,1.5116134E1,1.9578293E1,2.6239166E1,2.3480719E1,3.402101E1,2.652721E1,9.465308E0,2.9880539E1,7.1191607E0,2.7087683E1,2.721383E1,3.3936546E1,3.1913305E1,3.9059933E1,4.817715E1,3.6317123E1,1.7090008E1,4.49355E1,5.2321056E1,6.053739E1],"split_indices":[5,5,5,5,5,5,5,5,5,5,5,5,5,12,5,5,5,5,5,5,5,12,12,5,5,7,12,22,7,10,12,5,5,5,12,5,5,12,7,5,12,3,12,7,10,20,10,7,7,12,7,12,3,7,7,21,1,3,0,3,10,11,12,0,0,0,0,0,0,0,0,0,0,0,0,0,0,0,0,0,0,0,0,0,0,0,0,0,0,0,0,0,0,0,0,0,0,0,0,0,0,0,0,0,0,0,0,0,0,0,0,0,0,0,0,0,0,0,0,0,0,0,0,0,0],"split_type":[0,0,0,0,0,0,0,0,0,0,0,0,0,0,0,0,0,0,0,0,0,0,0,0,0,0,0,0,0,0,0,0,0,0,0,0,0,0,0,0,0,0,0,0,0,0,0,0,0,0,0,0,0,0,0,0,0,0,0,0,0,0,0,0,0,0,0,0,0,0,0,0,0,0,0,0,0,0,0,0,0,0,0,0,0,0,0,0,0,0,0,0,0,0,0,0,0,0,0,0,0,0,0,0,0,0,0,0,0,0,0,0,0,0,0,0,0,0,0,0,0,0,0,0,0],"sum_hessian":[7.4081E4,6.3347E4,1.0734E4,4.104E4,2.2307E4,8.136E3,2.598E3,2.1883E4,1.9157E4,1.5072E4,7.235E3,4.67E3,3.466E3,1.44E3,1.158E3,1.0651E4,1.1232E4,1.1571E4,7.586E3,8.388E3,6.684E3,4.042E3,3.193E3,2.34E3,2.33E3,1.442E3,2.024E3,6.67E2,7.73E2,5.73E2,5.85E2,5.473E3,5.178E3,5.547E3,5.685E3,6.071E3,5.5E3,4.955E3,2.631E3,4.579E3,3.809E3,3.781E3,2.903E3,2.388E3,1.654E3,1.736E3,1.457E3,1.167E3,1.173E3,1.452E3,8.78E2,1.062E3,3.8E2,1.579E3,4.45E2,4.04E2,2.63E2,7.6E2,1.3E1,2.93E2,2.8E2,2.17E2,3.68E2,2.535E3,2.938E3,1.745E3,3.433E3,3.475E3,2.072E3,3.972E3,1.713E3,3.533E3,2.538E3,2.407E3,3.093E3,3.676E3,1.279E3,7.29E2,1.902E3,1.429E3,3.15E3,2.751E3,1.058E3,3.3E3,4.81E2,1.546E3,1.357E3,6.28E2,1.76E3,9.07E2,7.47E2,3.62E2,1.374E3,7.36E2,7.21E2,1.4E1,1.153E3,8.61E2,3.12E2,8.29E2,6.23E2,5.64E2,3.14E2,6.84E2,3.78E2,2.8E1,3.52E2,9.66E2,6.13E2,1.03E2,3.42E2,2E0,4.02E2,1E0,2.62E2,4.3E1,7.17E2,4.4E1,2.49E2,1.95E2,8.5E1,2E0,2.15E2,2.82E2,8.6E1],"tree_param":{"num_deleted":"0","num_feature":"25","num_nodes":"125","size_leaf_vector":"1"}},{"base_weights":[-6.604152E-2,-7.324108E1,4.4521243E2,-1.330053E2,3.612041E1,3.5473508E2,7.219757E2,-1.6712788E2,-9.127191E1,1.4182404E-1,1.1182409E2,2.7292426E2,4.5552246E2,6.2390875E2,9.199076E2,-1.8698032E2,-1.4942432E2,-1.0780864E2,-7.0138664E1,-2.456392E1,2.9973604E1,8.6095146E1,1.4544228E2,2.3600356E2,3.153177E2,4.0439355E2,4.9184012E2,5.552687E2,6.7446484E2,8.6377893E2,1.0281635E3,-1.9822658E2,-1.764664E2,-1.5841528E2,-1.3775685E2,-1.16611916E2,-9.695408E1,-7.950274E1,-5.9442696E1,-3.475992E1,-8.00451E0,1.7131037E1,4.5297844E1,7.3386566E1,1.0392599E2,1.3132033E2,1.6262514E2,2.0515355E2,2.5505664E2,2.9730838E2,3.400272E2,4.1925906E2,3.792843E2,4.7816336E2,5.413768E2,5.7446277E2,5.2249475E2,6.401995E2,7.609123E2,8.017735E2,9.2602374E2,4.515208E1,1.0731967E3,-1.0333961E1,-9.703245E0,-9.147382E0,-8.618943E0,-8.1797695E0,-7.642106E0,-7.0633903E0,-6.497638E0,-6.1647706E0,-5.6132917E0,-5.097158E0,-4.51058E0,-4.163883E0,-3.406979E0,-3.1991222E0,-2.3479545E0,-1.9658121E0,-1.1816056E0,-9.274911E-1,-3.77104E-2,5.671405E-1,1.5322826E0,1.7723866E0,2.81897E0,2.7705674E0,4.8941154E0,4.1920404E0,6.4110703E0,5.684381E0,7.482618E0,6.9756885E0,8.541222E0,1.001845E1,1.5263811E1,1.3593752E1,1.1504131E1,1.4004481E1,1.5907257E1,1.8027874E1,1.5422267E1,2.0019342E1,2.2273401E1,1.3676661E1,1.911486E1,2.0716148E1,2.4424547E1,3.1408838E1,2.4391924E1,1.1250303E1,2.8775333E1,6.941182E0,2.6167997E1,2.4516699E1,3.2572006E1,3.4845375E1,4.168748E1,3.8028694E1,4.305982E1,4.9176292E1,4.0368164E1,2.9002527E1,5.4006237E1],"categories":[],"categories_nodes":[],"categories_segments":[],"categories_sizes":[],"default_left":[0,0,0,0,0,0,0,0,0,0,0,0,0,0,0,0,0,0,0,0,0,0,0,0,0,0,0,0,0,0,0,0,0,0,0,0,0,0,0,0,0,0,0,0,0,0,0,0,0,0,0,0,0,0,0,0,0,0,0,0,0,0,0,0,0,0,0,0,0,0,0,0,0,0,0,0,0,0,0,0,0,0,0,0,0,0,0,0,0,0,0,0,0,0,0,0,0,0,0,0,0,0,0,0,0,0,0,0,0,0,0,0,0,0,0,0,0,0,0,0,0,0,0,0,0],"id":8,"left_children":[1,3,5,7,9,11,13,15,17,19,21,23,25,27,29,31,33,35,37,39,41,43,45,47,49,51,53,55,57,59,61,63,65,67,69,71,73,75,77,79,81,83,85,87,89,91,93,95,97,99,101,103,105,107,109,111,113,115,117,119,121,-1,123,-1,-1,-1,-1,-1,-1,-1,-1,-1,-1,-1,-1,-1,-1,-1,-1,-1,-1,-1,-1,-1,-1,-1,-1,-1,-1,-1,-1,-1,-1,-1,-1,-1,-1,-1,-1,-1,-1,-1,-1,-1,-1,-1,-1,-1,-1,-1,-1,-1,-1,-1,-1,-1,-1,-1,-1,-1,-1,-1,-1,-1,-1],"loss_changes":[2.4193728E9,4.1681254E8,2.6217165E8,5.870829E7,6.1381544E7,6.5015104E7,4.9524864E7,7.94528E6,6.475888E6,1.1260134E7,6.267088E6,6.75456E6,6.370752E6,5.625408E6,4.294912E6,1.229056E6,1.236688E6,9.83048E5,8.1126E5,1.4107155E6,1.361295E6,9.2485E5,7.42036E5,1.320736E6,8.0136E5,3.91536E5,1.139488E6,1.6472E5,2.448352E6,1.449696E6,6.424E5,1.41296E5,1.15072E5,1.704E5,1.2492E5,1.52912E5,1.47764E5,1.80532E5,2.12747E5,2.61301E5,2.4357705E5,2.943285E5,3.42384E5,1.053977E6,8.23694E5,5.42844E5,2.44304E5,3.68532E5,5.4228E5,3.34616E5,4.38616E5,2.75216E5,7.3528E4,8.69632E5,1.73364E6,3.6848E4,2.1624E4,8.8672E5,7.05648E5,5.9856E4,1.095984E6,0E0,7.384E4,0E0,0E0,0E0,0E0,0E0,0E0,0E0,0E0,0E0,0E0,0E0,0E0,0E0,0E0,0E0,0E0,0E0,0E0,0E0,0E0,0E0,0E0,0E0,0E0,0E0,0E0,0E0,0E0,0E0,0E0,0E0,0E0,0E0,0E0,0E0,0E0,0E0,0E0,0E0,0E0,0E0,0E0,0E0,0E0,0E0,0E0,0E0,0E0,0E0,0E0,0E0,0E0,0E0,0E0,0E0,0E0,0E0,0E0,0E0,0E0,0E0,0E0],"parents":[2147483647,0,0,1,1,2,2,3,3,4,4,5,5,6,6,7,7,8,8,9,9,10,10,11,11,12,12,13,13,14,14,15,15,16,16,17,17,18,18,19,19,20,20,21,21,22,22,23,23,24,24,25,25,26,26,27,27,28,28,29,29,30,30,31,31,32,32,33,33,34,34,35,35,36,36,37,37,38,38,39,39,40,40,41,41,42,42,43,43,44,44,45,45,46,46,47,47,48,48,49,49,50,50,51,51,52,52,53,53,54,54,55,55,56,56,57,57,58,58,59,59,60,60,62,62],"right_children":[2,4,6,8,10,12,14,16,18,20,22,24,26,28,30,32,34,36,38,40,42,44,46,48,50,52,54,56,58,60,62,64,66,68,70,72,74,76,78,80,82,84,86,88,90,92,94,96,98,100,102,104,106,108,110,112,114,116,118,120,122,-1,124,-1,-1,-1,-1,-1,-1,-1,-1,-1,-1,-1,-1,-1,-1,-1,-1,-1,-1,-1,-1,-1,-1,-1,-1,-1,-1,-1,-1,-1,-1,-1,-1,-1,-1,-1,-1,-1,-1,-1,-1,-1,-1,-1,-1,-1,-1,-1,-1,-1,-1,-1,-1,-1,-1,-1,-1,-1,-1,-1,-1,-1,-1],"split_conditions":[9.078571E1,4.0857143E1,1.6678572E2,2.4142857E1,6.45E1,1.2757143E2,2.0664285E2,1.5785714E1,3.2785713E1,5.1285713E1,7.614286E1,1.1035714E2,1.4314285E2,3.6E1,2.5428572E2,1.1857142E1,2.0285715E1,2.8857143E1,3.6714287E1,4.707143E1,5.7642857E1,3.8E1,8.335714E1,9.778571E1,1.1957143E2,3.9470303E1,1E1,3E0,1.94E2,1.8E1,4.7E1,9.071428E0,1.3642858E1,1.8071428E1,3.5E1,2.6E1,3E1,3.9E1,1E1,3.7E1,2.4E1,3.9E1,3.4E1,1E0,1.8E1,3.8E1,6.2E1,5.1E1,3.2592724E1,3.1E1,3.627146E1,1.3685715E2,7.7E1,1.4013437E2,4.4E1,1.06E2,1.03E2,1.21E2,1.7E1,2.3002675E2,2.6E1,4.515208E1,5.075174E0,-1.0333961E1,-9.703245E0,-9.147382E0,-8.618943E0,-8.1797695E0,-7.642106E0,-7.0633903E0,-6.497638E0,-6.1647706E0,-5.6132917E0,-5.097158E0,-4.51058E0,-4.163883E0,-3.406979E0,-3.1991222E0,-2.3479545E0,-1.9658121E0,-1.1816056E0,-9.274911E-1,-3.77104E-2,5.671405E-1,1.5322826E0,1.7723866E0,2.81897E0,2.7705674E0,4.8941154E0,4.1920404E0,6.4110703E0,5.684381E0,7.482618E0,6.9756885E0,8.541222E0,1.001845E1,1.5263811E1,1.3593752E1,1.1504131E1,1.4004481E1,1.5907257E1,1.8027874E1,1.5422267E1,2.0019342E1,2.2273401E1,1.3676661E1,1.911486E1,2.0716148E1,2.4424547E1,3.1408838E1,2.4391924E1,1.1250303E1,2.8775333E1,6.941182E0,2.6167997E1,2.4516699E1,3.2572006E1,3.4845375E1,4.168748E1,3.8028694E1,4.305982E1,4.9176292E1,4.0368164E1,2.9002527E1,5.4006237E1],"split_indices":[5,5,5,5,5,5,5,5,5,5,5,5,5,12,5,5,5,5,5,5,5,12,5,5,5,6,11,22,5,10,12,5,5,5,12,5,12,12,11,12,12,12,12,19,10,12,3,12,6,12,6,5,3,8,12,2,1,2,10,8,10,0,21,0,0,0,0,0,0,0,0,0,0,0,0,0,0,0,0,0,0,0,0,0,0,0,0,0,0,0,0,0,0,0,0,0,0,0,0,0,0,0,0,0,0,0,0,0,0,0,0,0,0,0,0,0,0,0,0,0,0,0,0,0,0],"split_type":[0,0,0,0,0,0,0,0,0,0,0,0,0,0,0,0,0,0,0,0,0,0,0,0,0,0,0,0,0,0,0,0,0,0,0,0,0,0,0,0,0,0,0,0,0,0,0,0,0,0,0,0,0,0,0,0,0,0,0,0,0,0,0,0,0,0,0,0,0,0,0,0,0,0,0,0,0,0,0,0,0,0,0,0,0,0,0,0,0,0,0,0,0,0,0,0,0,0,0,0,0,0,0,0,0,0,0,0,0,0,0,0,0,0,0,0,0,0,0,0,0,0,0,0,0],"sum_hessian":[7.425E4,6.3771E4,1.0479E4,4.1236E4,2.2535E4,7.899E3,2.58E3,2.2685E4,1.8551E4,1.5276E4,7.259E3,4.362E3,3.537E3,1.728E3,8.52E2,1.0689E4,1.1996E4,1.0405E4,8.146E3,8.356E3,6.92E3,4.114E3,3.145E3,2.335E3,2.027E3,1.474E3,2.063E3,7.38E2,9.9E2,5.67E2,2.85E2,5.156E3,5.533E3,6.768E3,5.228E3,5.74E3,4.665E3,4.34E3,3.806E3,5.171E3,3.185E3,3.766E3,3.154E3,2.405E3,1.709E3,1.731E3,1.414E3,8.96E2,1.439E3,1.18E3,8.47E2,9.16E2,5.58E2,1.625E3,4.38E2,4.55E2,2.83E2,7.15E2,2.75E2,2.91E2,2.76E2,8.1E1,2.04E2,1.685E3,3.471E3,2.123E3,3.41E3,3.493E3,3.275E3,3.594E3,1.634E3,2.251E3,3.489E3,2.673E3,1.992E3,3.253E3,1.087E3,2.788E3,1.018E3,3.667E3,1.504E3,1.297E3,1.888E3,2.638E3,1.128E3,1.672E3,1.482E3,1.389E3,1.016E3,9.38E2,7.71E2,8.86E2,8.45E2,3.75E2,1.039E3,8.58E2,3.8E1,8.54E2,5.85E2,6.54E2,5.26E2,5.07E2,3.4E2,5.42E2,3.74E2,1.8E1,5.4E2,2.32E2,1.393E3,1.63E2,2.75E2,2E0,4.53E2,1E0,2.82E2,5.3E1,6.62E2,1.52E2,1.23E2,1.8E2,1.11E2,1.81E2,9.5E1,4E0,2E2],"tree_param":{"num_deleted":"0","num_feature":"25","num_nodes":"125","size_leaf_vector":"1"}},{"base_weights":[2.4318361E-1,-6.751331E1,4.266655E2,-1.25392654E2,3.6069153E1,3.3481885E2,6.5553625E2,-1.577804E2,-8.579891E1,-7.22943E0,9.629906E1,2.6605945E2,4.2263174E2,5.9297797E2,9.0443036E2,-1.7570471E2,-1.3976573E2,-1.0346036E2,-6.683617E1,-2.8098942E1,1.3883254E1,6.7366486E1,1.3096956E2,2.0957408E2,2.9277536E2,3.4511844E2,4.4622083E2,5.122769E2,6.743523E2,7.8842786E2,9.629476E2,-1.874297E2,-1.6563168E2,-1.489275E2,-1.3020036E2,-1.12708435E2,-9.569171E1,-7.69176E1,-5.7320023E1,-4.5098694E1,-2.1572027E1,3.7864888E-1,2.6986898E1,4.815027E1,8.3239105E1,9.748855E1,1.4793661E2,1.5439635E2,2.2788443E2,2.5341887E2,3.2095334E2,2.5374692E2,3.6182968E2,4.0176556E2,4.754825E2,4.5185645E2,5.2667786E2,5.058872E2,7.0365753E2,8.3741565E2,6.755374E2,7.5619446E2,9.896178E2,-9.76554E0,-9.176391E0,-8.664294E0,-8.160411E0,-7.657159E0,-7.1330237E0,-6.7955446E0,-6.1982336E0,-5.9282722E0,-5.2581196E0,-5.110522E0,-4.3449197E0,-4.1786575E0,-3.3770065E0,-3.1788614E0,-2.15887E0,-1.7350153E0,-2.690856E0,-1.4790823E0,-5.2263516E-1,-3.303952E-1,6.9715136E-1,8.667235E-1,2.432316E0,1.6407108E0,3.0771677E0,3.6135128E0,5.47315E0,4.5621805E0,9.614996E0,6.391674E0,8.3913555E0,6.3229017E0,9.5023365E0,1.2511043E1,1.0197822E1,1.08881035E1,1.3276057E1,1.62654E1,1.1249484E1,1.3430939E1,7.4357285E0,1.5376663E1,1.8871428E1,2.0491568E1,1.5384172E1,1.9211853E1,2.4069159E1,1.9314987E1,2.3497128E1,2.5161636E1,2.7819532E1,1.2882541E1,2.6377455E1,3.6064205E1,2.9279175E1,2.6817932E1,4.3111237E1,2.655725E1,3.7531338E1,9.380923E0,3.8215E1,4.76493E1,5.4175335E1],"categories":[],"categories_nodes":[],"categories_segments":[],"categories_sizes":[],"default_left":[0,0,0,0,0,0,0,0,0,0,0,0,0,0,0,0,0,0,0,0,0,0,0,0,0,0,0,0,0,0,0,0,0,0,0,0,0,0,0,0,0,0,0,0,0,0,0,0,0,0,0,0,0,0,0,0,0,0,0,0,0,0,0,0,0,0,0,0,0,0,0,0,0,0,0,0,0,0,0,0,0,0,0,0,0,0,0,0,0,0,0,0,0,0,0,0,0,0,0,0,0,0,0,0,0,0,0,0,0,0,0,0,0,0,0,0,0,0,0,0,0,0,0,0,0,0,0],"id":9,"left_children":[1,3,5,7,9,11,13,15,17,19,21,23,25,27,29,31,33,35,37,39,41,43,45,47,49,51,53,55,57,59,61,63,65,67,69,71,73,75,77,79,81,83,85,87,89,91,93,95,97,99,101,103,105,107,109,111,113,115,117,119,121,123,125,-1,-1,-1,-1,-1,-1,-1,-1,-1,-1,-1,-1,-1,-1,-1,-1,-1,-1,-1,-1,-1,-1,-1,-1,-1,-1,-1,-1,-1,-1,-1,-1,-1,-1,-1,-1,-1,-1,-1,-1,-1,-1,-1,-1,-1,-1,-1,-1,-1,-1,-1,-1,-1,-1,-1,-1,-1,-1,-1,-1,-1,-1,-1,-1],"loss_changes":[2.143534E9,3.8380464E8,2.1360614E8,5.265139E7,5.9848692E7,4.3729216E7,4.4804736E7,7.26944E6,6.182544E6,5.883434E6,9.619E6,6.088064E6,5.673344E6,1.4955648E7,3.198272E6,1.305792E6,9.68368E5,6.76552E5,8.50868E5,7.44096E5,1.1746471E6,1.592422E6,2.465224E6,1.290356E6,2.983904E6,1.050336E6,2.982976E6,7.8352E5,5.356032E6,5.45872E5,1.363584E6,1.24752E5,8.4816E4,1.30072E5,1.79784E5,1.8032E5,2.89536E5,2.64348E5,4.03438E5,1.6693675E5,4.3199525E5,3.099843E5,7.0350025E5,4.84772E5,8.16196E5,8.53422E5,1.136144E6,3.04651E5,4.74348E5,4.41888E5,5.98352E5,1.459345E5,4.17512E5,6.13792E5,6.0432E5,9.4724E4,3.7624E5,8.05096E5,1.623488E6,5.5332E5,3.16904E5,7.7816E4,1.23008E5,0E0,0E0,0E0,0E0,0E0,0E0,0E0,0E0,0E0,0E0,0E0,0E0,0E0,0E0,0E0,0E0,0E0,0E0,0E0,0E0,0E0,0E0,0E0,0E0,0E0,0E0,0E0,0E0,0E0,0E0,0E0,0E0,0E0,0E0,0E0,0E0,0E0,0E0,0E0,0E0,0E0,0E0,0E0,0E0,0E0,0E0,0E0,0E0,0E0,0E0,0E0,0E0,0E0,0E0,0E0,0E0,0E0,0E0,0E0,0E0,0E0,0E0,0E0,0E0],"parents":[2147483647,0,0,1,1,2,2,3,3,4,4,5,5,6,6,7,7,8,8,9,9,10,10,11,11,12,12,13,13,14,14,15,15,16,16,17,17,18,18,19,19,20,20,21,21,22,22,23,23,24,24,25,25,26,26,27,27,28,28,29,29,30,30,31,31,32,32,33,33,34,34,35,35,36,36,37,37,38,38,39,39,40,40,41,41,42,42,43,43,44,44,45,45,46,46,47,47,48,48,49,49,50,50,51,51,52,52,53,53,54,54,55,55,56,56,57,57,58,58,59,59,60,60,61,61,62,62],"right_children":[2,4,6,8,10,12,14,16,18,20,22,24,26,28,30,32,34,36,38,40,42,44,46,48,50,52,54,56,58,60,62,64,66,68,70,72,74,76,78,80,82,84,86,88,90,92,94,96,98,100,102,104,106,108,110,112,114,116,118,120,122,124,126,-1,-1,-1,-1,-1,-1,-1,-1,-1,-1,-1,-1,-1,-1,-1,-1,-1,-1,-1,-1,-1,-1,-1,-1,-1,-1,-1,-1,-1,-1,-1,-1,-1,-1,-1,-1,-1,-1,-1,-1,-1,-1,-1,-1,-1,-1,-1,-1,-1,-1,-1,-1,-1,-1,-1,-1,-1,-1,-1,-1,-1,-1,-1,-1],"split_conditions":[9.492285E1,4.092073E1,1.6413268E2,2.4047571E1,6.0315945E1,1.2871634E2,2.3002675E2,1.6115007E1,3.1975475E1,4.9130863E1,7.4298836E1,8.7E1,1.07E2,3.9E1,4.7E1,1.1780736E1,2.0033674E1,2.7498255E1,3.3E1,3.3E1,4.8E1,5.6E1,6.1E1,7E1,1.106329E2,8E1,1.4336812E2,1.21E2,1.21E2,2.6E1,1.69E2,8.856902E0,1.2977517E1,1.9E1,2.1E1,2.6E1,3E1,3.633672E1,3.8375114E1,4E0,4.5677746E1,3.9E1,3.8E1,5.2E1,4.2E1,5.1E1,8.334388E1,6.4E1,3.3049026E1,9.8970985E1,1.6E1,4E0,9.5E1,1.77E2,9E0,1.14E2,3.1E1,8.8E1,2.6E1,1E1,2.5772357E2,1.05E2,5.1E1,-9.76554E0,-9.176391E0,-8.664294E0,-8.160411E0,-7.657159E0,-7.1330237E0,-6.7955446E0,-6.1982336E0,-5.9282722E0,-5.2581196E0,-5.110522E0,-4.3449197E0,-4.1786575E0,-3.3770065E0,-3.1788614E0,-2.15887E0,-1.7350153E0,-2.690856E0,-1.4790823E0,-5.2263516E-1,-3.303952E-1,6.9715136E-1,8.667235E-1,2.432316E0,1.6407108E0,3.0771677E0,3.6135128E0,5.47315E0,4.5621805E0,9.614996E0,6.391674E0,8.3913555E0,6.3229017E0,9.5023365E0,1.2511043E1,1.0197822E1,1.08881035E1,1.3276057E1,1.62654E1,1.1249484E1,1.3430939E1,7.4357285E0,1.5376663E1,1.8871428E1,2.0491568E1,1.5384172E1,1.9211853E1,2.4069159E1,1.9314987E1,2.3497128E1,2.5161636E1,2.7819532E1,1.2882541E1,2.6377455E1,3.6064205E1,2.9279175E1,2.6817932E1,4.3111237E1,2.655725E1,3.7531338E1,9.380923E0,3.8215E1,4.76493E1,5.4175335E1],"split_indices":[8,8,8,8,8,8,8,8,8,8,8,3,3,12,12,8,8,8,3,3,3,3,3,1,8,3,8,3,3,10,1,8,8,3,3,3,3,8,8,19,8,12,12,1,12,12,8,3,6,8,22,9,1,0,12,1,12,3,10,11,8,3,12,0,0,0,0,0,0,0,0,0,0,0,0,0,0,0,0,0,0,0,0,0,0,0,0,0,0,0,0,0,0,0,0,0,0,0,0,0,0,0,0,0,0,0,0,0,0,0,0,0,0,0,0,0,0,0,0,0,0,0,0,0,0,0,0],"split_type":[0,0,0,0,0,0,0,0,0,0,0,0,0,0,0,0,0,0,0,0,0,0,0,0,0,0,0,0,0,0,0,0,0,0,0,0,0,0,0,0,0,0,0,0,0,0,0,0,0,0,0,0,0,0,0,0,0,0,0,0,0,0,0,0,0,0,0,0,0,0,0,0,0,0,0,0,0,0,0,0,0,0,0,0,0,0,0,0,0,0,0,0,0,0,0,0,0,0,0,0,0,0,0,0,0,0,0,0,0,0,0,0,0,0,0,0,0,0,0,0,0,0,0,0,0,0,0],"sum_hessian":[7.4187E4,6.4016E4,1.0171E4,4.1068E4,2.2948E4,7.26E3,2.911E3,2.2588E4,1.848E4,1.3351E4,9.597E3,4.074E3,3.186E3,2.329E3,5.82E2,1.1318E4,1.127E4,9.566E3,8.914E3,6.714E3,6.637E3,5.233E3,4.364E3,1.311E3,2.763E3,7.47E2,2.439E3,1.173E3,1.156E3,2E2,3.82E2,5.222E3,6.096E3,5.749E3,5.521E3,4.361E3,5.205E3,4.325E3,4.589E3,1.861E3,4.853E3,3.269E3,3.368E3,2.369E3,2.864E3,1.47E3,2.894E3,3.29E2,9.82E2,1.157E3,1.606E3,1.18E2,6.29E2,9.74E2,1.465E3,2.32E2,9.41E2,1.74E2,9.82E2,1.35E2,6.5E1,4.7E1,3.35E2,1.713E3,3.509E3,1.449E3,4.647E3,3.423E3,2.326E3,2.871E3,2.65E3,2.447E3,1.914E3,2.983E3,2.222E3,2.525E3,1.8E3,3.179E3,1.41E3,8.51E2,1.01E3,2.82E3,2.033E3,2.158E3,1.111E3,2.331E3,1.037E3,1.106E3,1.263E3,2.022E3,8.42E2,1.381E3,8.9E1,1.443E3,1.451E3,1.87E2,1.42E2,5.03E2,4.79E2,2.98E2,8.59E2,1.534E3,7.2E1,1.02E2,1.6E1,1.45E2,4.84E2,8.94E2,8E1,9.3E1,1.372E3,5.5E1,1.77E2,5.36E2,4.05E2,1.5E1,1.59E2,8.5E2,1.32E2,1.2E1,1.23E2,2.5E1,4E1,1E0,4.6E1,2.49E2,8.6E1],"tree_param":{"num_deleted":"0","num_feature":"25","num_nodes":"127","size_leaf_vector":"1"}},{"base_weights":[7.5927913E-1,-6.673452E1,3.96189E2,-1.216106E2,2.8342651E1,3.1872577E2,6.7268494E2,-1.5416501E2,-8.7925476E1,-9.944829E0,8.5640755E1,2.3634059E2,4.0899594E2,5.7340936E2,8.392225E2,-1.7381972E2,-1.421126E2,-1.0591577E2,-7.120959E1,-3.1443197E1,1.11164665E1,6.142065E1,1.2086772E2,1.8728491E2,2.6118152E2,3.4933688E2,4.4174966E2,5.162956E2,6.3177356E2,7.852958E2,9.413834E2,-1.8264954E2,-1.6703821E2,-1.5006941E2,-1.3178755E2,-1.1323222E2,-9.710979E1,-7.994724E1,-6.085363E1,-4.126037E1,-2.5545113E1,1.2437464E0,2.5487667E1,4.748461E1,7.703263E1,1.0267711E2,1.3663913E2,1.7588011E2,2.3375278E2,2.4351573E2,2.875776E2,3.6205893E2,3.2722345E2,3.5205402E2,4.4809305E2,4.9237918E2,5.5578894E2,7.0441833E2,5.9215375E2,7.246511E2,8.5221765E2,4.0493248E1,9.849293E2,-1.0057954E1,-9.047236E0,-8.432436E0,-7.7677407E0,-7.6631045E0,-7.206208E0,-6.751622E0,-6.1901245E0,-5.824388E0,-5.240187E0,-4.9770193E0,-4.5585384E0,-4.164508E0,-3.5246742E0,-3.2909458E0,-2.3838136E0,-3.6525228E0,-2.015855E0,-1.5785408E0,-8.8491696E-1,-1.9031416E-1,6.852813E-1,9.644856E-1,1.8908943E0,1.8652859E0,3.0036812E0,3.2036004E0,4.795097E0,4.20536E0,5.93737E0,5.89942E0,7.2464957E0,9.495273E0,6.709656E0,9.202067E0,1.47184515E1,1.0901641E1,1.2570746E1,1.5253738E1,1.2784481E1,1.74433E1,1.9448801E1,1.5743489E1,1.7805868E1,9.249166E0,1.7792868E1,2.0019E1,2.2930838E1,2.7549292E1,2.3562721E1,2.7171839E1,3.4745827E1,3.1504728E1,4.462031E1,2.6242374E1,3.247221E1,2.8754292E1,3.722659E1,4.52195E1,3.7544453E1,2.7535343E1,4.9623302E1],"categories":[],"categories_nodes":[],"categories_segments":[],"categories_sizes":[],"default_left":[0,0,0,0,0,0,0,0,0,0,0,0,0,0,0,0,0,0,0,0,0,0,0,0,0,0,0,0,0,0,0,0,0,0,0,0,0,0,0,0,0,0,0,0,0,0,0,0,0,0,0,0,0,0,0,0,0,0,0,0,0,0,0,0,0,0,0,0,0,0,0,0,0,0,0,0,0,0,0,0,0,0,0,0,0,0,0,0,0,0,0,0,0,0,0,0,0,0,0,0,0,0,0,0,0,0,0,0,0,0,0,0,0,0,0,0,0,0,0,0,0,0,0,0,0],"id":10,"left_children":[1,3,5,7,9,11,13,15,17,19,21,23,25,27,29,31,33,35,37,39,41,43,45,47,49,51,53,55,57,59,61,63,65,67,69,71,73,75,77,79,81,83,85,87,89,91,93,95,97,99,101,103,105,107,109,111,113,115,117,119,121,-1,123,-1,-1,-1,-1,-1,-1,-1,-1,-1,-1,-1,-1,-1,-1,-1,-1,-1,-1,-1,-1,-1,-1,-1,-1,-1,-1,-1,-1,-1,-1,-1,-1,-1,-1,-1,-1,-1,-1,-1,-1,-1,-1,-1,-1,-1,-1,-1,-1,-1,-1,-1,-1,-1,-1,-1,-1,-1,-1,-1,-1,-1,-1],"loss_changes":[1.976431E9,3.3004448E8,2.3103846E8,4.3968896E7,5.078732E7,6.2641216E7,3.8569984E7,4.80656E6,5.920928E6,6.2840785E6,7.904312E6,5.328704E6,7.7088E6,4.617248E6,4.1088E6,4.33424E5,1.019344E6,6.00624E5,9.20096E5,3.966205E5,9.94709E5,1.19232E6,1.06956E6,7.46936E5,1.294864E6,2.84112E5,1.318176E6,4.39456E5,1.681088E6,1.74448E6,9.14736E5,6.9464E4,5.648E4,1.13344E5,1.26128E5,1.299E5,5.3212E4,1.6924E5,3.03202E5,7.43E4,2.02424E5,2.6166408E5,2.1745562E5,3.70268E5,6.27506E5,5.14642E5,2.95252E5,6.74952E5,8.19687E5,2.99464E5,5.7368E5,1.83544E5,7.812E4,4.6006E4,1.031008E6,3.33376E5,9.8392E4,2.958632E6,1.50232E6,4.99536E5,7.53552E5,0E0,1.73408E5,0E0,0E0,0E0,0E0,0E0,0E0,0E0,0E0,0E0,0E0,0E0,0E0,0E0,0E0,0E0,0E0,0E0,0E0,0E0,0E0,0E0,0E0,0E0,0E0,0E0,0E0,0E0,0E0,0E0,0E0,0E0,0E0,0E0,0E0,0E0,0E0,0E0,0E0,0E0,0E0,0E0,0E0,0E0,0E0,0E0,0E0,0E0,0E0,0E0,0E0,0E0,0E0,0E0,0E0,0E0,0E0,0E0,0E0,0E0,0E0,0E0,0E0],"parents":[2147483647,0,0,1,1,2,2,3,3,4,4,5,5,6,6,7,7,8,8,9,9,10,10,11,11,12,12,13,13,14,14,15,15,16,16,17,17,18,18,19,19,20,20,21,21,22,22,23,23,24,24,25,25,26,26,27,27,28,28,29,29,30,30,31,31,32,32,33,33,34,34,35,35,36,36,37,37,38,38,39,39,40,40,41,41,42,42,43,43,44,44,45,45,46,46,47,47,48,48,49,49,50,50,51,51,52,52,53,53,54,54,55,55,56,56,57,57,58,58,59,59,60,60,62,62],"right_children":[2,4,6,8,10,12,14,16,18,20,22,24,26,28,30,32,34,36,38,40,42,44,46,48,50,52,54,56,58,60,62,64,66,68,70,72,74,76,78,80,82,84,86,88,90,92,94,96,98,100,102,104,106,108,110,112,114,116,118,120,122,-1,124,-1,-1,-1,-1,-1,-1,-1,-1,-1,-1,-1,-1,-1,-1,-1,-1,-1,-1,-1,-1,-1,-1,-1,-1,-1,-1,-1,-1,-1,-1,-1,-1,-1,-1,-1,-1,-1,-1,-1,-1,-1,-1,-1,-1,-1,-1,-1,-1,-1,-1,-1,-1,-1,-1,-1,-1,-1,-1,-1,-1,-1,-1],"split_conditions":[8.885714E1,3.9785713E1,1.7092857E2,2.2571428E1,5.9357143E1,1.2464286E2,2.0664285E2,1.4071428E1,3.0285715E1,4.8142857E1,7.321429E1,1.0078571E2,1.3985715E2,3.9E1,2.5428572E2,1.0357142E1,1.8642857E1,2.6714285E1,3.5142857E1,4.292857E1,5.407143E1,6.614286E1,7.942857E1,4.7E1,1.1478571E2,3.9470303E1,9E0,3.4E1,4.3E1,1.8E1,4.7E1,6.928571E0,4.2E1,1.6928572E1,3.5E1,3.9E1,3.3E1,3.8E1,3.9E1,6E0,3E1,3.9E1,3.9E1,9E0,3.8E1,3.5E1,6.2E1,1.9936962E1,7.355002E0,8.1E1,3.6854282E1,3.4E1,4.5E1,1.01E2,1.19E2,5.26269E0,6.3885612E0,4.2E1,4.7E1,1.65E2,2.6E1,4.0493248E1,5.075174E0,-1.0057954E1,-9.047236E0,-8.432436E0,-7.7677407E0,-7.6631045E0,-7.206208E0,-6.751622E0,-6.1901245E0,-5.824388E0,-5.240187E0,-4.9770193E0,-4.5585384E0,-4.164508E0,-3.5246742E0,-3.2909458E0,-2.3838136E0,-3.6525228E0,-2.015855E0,-1.5785408E0,-8.8491696E-1,-1.9031416E-1,6.852813E-1,9.644856E-1,1.8908943E0,1.8652859E0,3.0036812E0,3.2036004E0,4.795097E0,4.20536E0,5.93737E0,5.89942E0,7.2464957E0,9.495273E0,6.709656E0,9.202067E0,1.47184515E1,1.0901641E1,1.2570746E1,1.5253738E1,1.2784481E1,1.74433E1,1.9448801E1,1.5743489E1,1.7805868E1,9.249166E0,1.7792868E1,2.0019E1,2.2930838E1,2.7549292E1,2.3562721E1,2.7171839E1,3.4745827E1,3.1504728E1,4.462031E1,2.6242374E1,3.247221E1,2.8754292E1,3.722659E1,4.52195E1,3.7544453E1,2.7535343E1,4.9623302E1],"split_indices":[5,5,5,5,5,5,5,5,5,5,5,5,5,12,5,5,5,5,5,5,5,5,5,12,5,6,12,12,12,10,12,5,12,5,12,12,3,12,12,12,12,12,12,11,12,12,3,24,21,3,6,12,12,3,0,21,21,12,12,0,10,0,21,0,0,0,0,0,0,0,0,0,0,0,0,0,0,0,0,0,0,0,0,0,0,0,0,0,0,0,0,0,0,0,0,0,0,0,0,0,0,0,0,0,0,0,0,0,0,0,0,0,0,0,0,0,0,0,0,0,0,0,0,0,0],"split_type":[0,0,0,0,0,0,0,0,0,0,0,0,0,0,0,0,0,0,0,0,0,0,0,0,0,0,0,0,0,0,0,0,0,0,0,0,0,0,0,0,0,0,0,0,0,0,0,0,0,0,0,0,0,0,0,0,0,0,0,0,0,0,0,0,0,0,0,0,0,0,0,0,0,0,0,0,0,0,0,0,0,0,0,0,0,0,0,0,0,0,0,0,0,0,0,0,0,0,0,0,0,0,0,0,0,0,0,0,0,0,0,0,0,0,0,0,0,0,0,0,0,0,0,0,0],"sum_hessian":[7.4052E4,6.3256E4,1.0796E4,4.0107E4,2.3149E4,8.435E3,2.361E3,2.0394E4,1.9713E4,1.3877E4,9.272E3,4.412E3,4.023E3,1.482E3,8.79E2,7.747E3,1.2647E4,9.492E3,1.0221E4,6.867E3,7.01E3,5.496E3,3.776E3,1.486E3,2.926E3,1.43E3,2.593E3,7.54E2,7.28E2,5.81E2,2.98E2,3.354E3,4.393E3,7.135E3,5.512E3,5.178E3,4.314E3,5.54E3,4.681E3,2.575E3,4.292E3,4.156E3,2.854E3,2.906E3,2.59E3,1.757E3,2.019E3,1.197E3,2.89E2,1.759E3,1.167E3,8.98E2,5.32E2,1.75E2,2.418E3,4.78E2,2.76E2,2.51E2,4.77E2,3.11E2,2.7E2,7.9E1,2.19E2,2.73E2,3.081E3,3.849E3,5.44E2,4.626E3,2.509E3,3.908E3,1.604E3,3.726E3,1.452E3,3.05E3,1.264E3,4.087E3,1.453E3,3.397E3,1.284E3,7.2E1,2.503E3,2.426E3,1.866E3,2.958E3,1.198E3,1.901E3,9.53E2,1.609E3,1.297E3,1.538E3,1.052E3,8.18E2,9.39E2,6.26E2,1.393E3,8.93E2,3.04E2,1.61E2,1.28E2,4.23E2,1.336E3,7.48E2,4.19E2,6.12E2,2.86E2,3.81E2,1.51E2,5E0,1.7E2,4.44E2,1.974E3,1.2E2,3.58E2,2.58E2,1.8E1,1.83E2,6.8E1,2.24E2,2.53E2,4E1,2.71E2,1.73E2,9.7E1,5E0,2.14E2],"tree_param":{"num_deleted":"0","num_feature":"25","num_nodes":"125","size_leaf_vector":"1"}},{"base_weights":[-1.1226383E-1,-6.368287E1,3.7778632E2,-1.1228711E2,3.355399E1,2.7616705E2,5.643443E2,-1.4344078E2,-7.635587E1,3.5291553E0,9.416641E1,2.2542705E2,3.6073813E2,4.798217E2,7.553347E2,-1.595189E2,-1.2744225E2,-9.115164E1,-5.6410393E1,-1.639286E1,2.795847E1,7.6613365E1,1.236369E2,1.9436382E2,2.6099246E2,3.3360226E2,3.9498538E2,4.347822E2,5.165198E2,6.758836E2,8.3374677E2,-1.69053E2,-1.4954068E2,-1.3521494E2,-1.18317924E2,-1.0005604E2,-8.158714E1,-6.502722E1,-4.578555E1,-2.5462135E1,-2.8215666E0,1.6281048E1,3.988795E1,1.0694868E2,6.9351036E1,1.3369681E2,1.0484714E2,1.6546045E2,2.1188106E2,2.7811917E2,2.406362E2,3.5331433E2,3.1566547E2,4.145096E2,3.3410373E2,4.074444E2,4.5601172E2,4.7583E2,5.4456647E2,6.217028E2,7.3712335E2,7.290053E2,8.895258E2,-8.70665E0,-8.150456E0,-7.7664957E0,-7.368039E0,-7.0152597E0,-6.574811E0,-6.1876917E0,-5.702701E0,-5.278495E0,-4.8220973E0,-4.2591176E0,-3.6258671E0,-3.4410748E0,-2.7095714E0,-1.5343854E0,-2.4472816E0,-1.5011526E0,-8.270535E-1,-4.6345806E-1,3.8642272E-1,5.371061E-1,1.4631721E0,1.53294E0,2.5211346E0,4.4476314E0,5.899527E0,2.5713558E0,4.3412704E0,6.2174683E0,7.7359276E0,2.8539913E0,6.1787605E0,1.6250153E1,8.133704E0,1.1154969E1,9.089422E0,1.30167055E1,1.6081366E1,1.1122305E1,1.30155945E1,1.70569E1,2.265615E1,1.8813559E1,1.5456764E1,2.0024473E1,2.4418703E1,1.2530798E1,1.6994154E1,8.41173E0,2.0494757E1,1.8458647E1,2.3137762E1,2.7517118E1,2.2221731E1,3.085977E1,2.634047E1,2.6515991E1,3.2273434E1,4.0154034E1,2.8868986E1,3.8815807E1,3.210104E1,3.61117E1,4.55524E1],"categories":[],"categories_nodes":[],"categories_segments":[],"categories_sizes":[],"default_left":[0,0,0,0,0,0,0,0,0,0,0,0,0,0,0,0,0,0,0,0,0,0,0,0,0,0,0,0,0,0,0,0,0,0,0,0,0,0,0,0,0,0,0,0,0,0,0,0,0,0,0,0,0,0,0,0,0,0,0,0,0,0,0,0,0,0,0,0,0,0,0,0,0,0,0,0,0,0,0,0,0,0,0,0,0,0,0,0,0,0,0,0,0,0,0,0,0,0,0,0,0,0,0,0,0,0,0,0,0,0,0,0,0,0,0,0,0,0,0,0,0,0,0,0,0,0,0],"id":11,"left_children":[1,3,5,7,9,11,13,15,17,19,21,23,25,27,29,31,33,35,37,39,41,43,45,47,49,51,53,55,57,59,61,63,65,67,69,71,73,75,77,79,81,83,85,87,89,91,93,95,97,99,101,103,105,107,109,111,113,115,117,119,121,123,125,-1,-1,-1,-1,-1,-1,-1,-1,-1,-1,-1,-1,-1,-1,-1,-1,-1,-1,-1,-1,-1,-1,-1,-1,-1,-1,-1,-1,-1,-1,-1,-1,-1,-1,-1,-1,-1,-1,-1,-1,-1,-1,-1,-1,-1,-1,-1,-1,-1,-1,-1,-1,-1,-1,-1,-1,-1,-1,-1,-1,-1,-1,-1,-1],"loss_changes":[1.7750774E9,2.9893107E8,2.0155597E8,4.719475E7,3.8362696E7,2.9484608E7,6.018995E7,5.78944E6,5.774864E6,6.8616895E6,3.602804E6,4.70976E6,2.267776E6,4.077824E6,6.594688E6,1.046016E6,7.87248E5,9.4936E5,7.60936E5,9.557814E5,8.81573E5,9.57298E5,4.78388E5,1.13148E6,6.32448E5,4.00064E5,1.21184E6,4.96144E5,1.371648E6,1.452928E6,2.705056E6,1.48192E5,4.6656E4,9.7192E4,1.06824E5,1.05756E5,1.70752E5,1.856E5,1.76935E5,1.88907E5,2.1175689E5,2.2993669E5,3.029685E5,1.57216E5,1.103044E6,3.13434E5,8.09707E5,3.35662E5,4.42528E5,7.5428E5,2.728E5,6.73048E5,1.8724E5,6.9088E5,5.0404E4,2.3764E5,2.11568E5,1.13796E6,7.56912E5,3.3528E5,2.328416E6,3.45224E5,6.74176E5,0E0,0E0,0E0,0E0,0E0,0E0,0E0,0E0,0E0,0E0,0E0,0E0,0E0,0E0,0E0,0E0,0E0,0E0,0E0,0E0,0E0,0E0,0E0,0E0,0E0,0E0,0E0,0E0,0E0,0E0,0E0,0E0,0E0,0E0,0E0,0E0,0E0,0E0,0E0,0E0,0E0,0E0,0E0,0E0,0E0,0E0,0E0,0E0,0E0,0E0,0E0,0E0,0E0,0E0,0E0,0E0,0E0,0E0,0E0,0E0,0E0,0E0,0E0,0E0],"parents":[2147483647,0,0,1,1,2,2,3,3,4,4,5,5,6,6,7,7,8,8,9,9,10,10,11,11,12,12,13,13,14,14,15,15,16,16,17,17,18,18,19,19,20,20,21,21,22,22,23,23,24,24,25,25,26,26,27,27,28,28,29,29,30,30,31,31,32,32,33,33,34,34,35,35,36,36,37,37,38,38,39,39,40,40,41,41,42,42,43,43,44,44,45,45,46,46,47,47,48,48,49,49,50,50,51,51,52,52,53,53,54,54,55,55,56,56,57,57,58,58,59,59,60,60,61,61,62,62],"right_children":[2,4,6,8,10,12,14,16,18,20,22,24,26,28,30,32,34,36,38,40,42,44,46,48,50,52,54,56,58,60,62,64,66,68,70,72,74,76,78,80,82,84,86,88,90,92,94,96,98,100,102,104,106,108,110,112,114,116,118,120,122,124,126,-1,-1,-1,-1,-1,-1,-1,-1,-1,-1,-1,-1,-1,-1,-1,-1,-1,-1,-1,-1,-1,-1,-1,-1,-1,-1,-1,-1,-1,-1,-1,-1,-1,-1,-1,-1,-1,-1,-1,-1,-1,-1,-1,-1,-1,-1,-1,-1,-1,-1,-1,-1,-1,-1,-1,-1,-1,-1,-1,-1,-1,-1,-1,-1],"split_conditions":[8.885714E1,4.2214287E1,1.5292857E2,2.4142857E1,6.45E1,1.2464286E2,1.94E2,1.6142857E1,3.357143E1,5.2142857E1,7.714286E1,1.0792857E2,1.3985715E2,3E1,2.2528572E2,1.2357142E1,2.0285715E1,2.8857143E1,3.7857143E1,4.7857143E1,5.7642857E1,2.0326998E1,3.2433872E1,9.521429E1,3.4285805E1,3.5905018E1,4.9139015E1,1.6292857E2,1.7092857E2,1.8E1,4.7E1,1.0142858E1,1.3642858E1,1.7857143E1,2.1857143E1,2.6E1,3.7E1,3.9E1,1E0,3.5E1,1.1E1,6.1E1,3.4E1,6.928571E1,3.5E1,3.9E1,3.8E1,1.6750267E1,3.814439E1,8E0,3.6E1,4.2E1,4.624973E0,4.2E1,9.1E1,4.983607E0,3E0,3.8763016E1,4.241708E1,1.9914285E2,2.6E1,3E0,5.075174E0,-8.70665E0,-8.150456E0,-7.7664957E0,-7.368039E0,-7.0152597E0,-6.574811E0,-6.1876917E0,-5.702701E0,-5.278495E0,-4.8220973E0,-4.2591176E0,-3.6258671E0,-3.4410748E0,-2.7095714E0,-1.5343854E0,-2.4472816E0,-1.5011526E0,-8.270535E-1,-4.6345806E-1,3.8642272E-1,5.371061E-1,1.4631721E0,1.53294E0,2.5211346E0,4.4476314E0,5.899527E0,2.5713558E0,4.3412704E0,6.2174683E0,7.7359276E0,2.8539913E0,6.1787605E0,1.6250153E1,8.133704E0,1.1154969E1,9.089422E0,1.30167055E1,1.6081366E1,1.1122305E1,1.30155945E1,1.70569E1,2.265615E1,1.8813559E1,1.5456764E1,2.0024473E1,2.4418703E1,1.2530798E1,1.6994154E1,8.41173E0,2.0494757E1,1.8458647E1,2.3137762E1,2.7517118E1,2.2221731E1,3.085977E1,2.634047E1,2.6515991E1,3.2273434E1,4.0154034E1,2.8868986E1,3.8815807E1,3.210104E1,3.61117E1,4.55524E1],"split_indices":[5,5,5,5,5,5,5,5,5,5,5,5,5,12,5,5,5,5,5,5,5,7,7,5,7,7,7,5,5,10,12,5,5,5,5,5,12,12,19,12,22,3,12,5,12,12,12,7,7,11,12,12,21,12,3,21,11,7,7,4,10,22,21,0,0,0,0,0,0,0,0,0,0,0,0,0,0,0,0,0,0,0,0,0,0,0,0,0,0,0,0,0,0,0,0,0,0,0,0,0,0,0,0,0,0,0,0,0,0,0,0,0,0,0,0,0,0,0,0,0,0,0,0,0,0,0,0],"split_type":[0,0,0,0,0,0,0,0,0,0,0,0,0,0,0,0,0,0,0,0,0,0,0,0,0,0,0,0,0,0,0,0,0,0,0,0,0,0,0,0,0,0,0,0,0,0,0,0,0,0,0,0,0,0,0,0,0,0,0,0,0,0,0,0,0,0,0,0,0,0,0,0,0,0,0,0,0,0,0,0,0,0,0,0,0,0,0,0,0,0,0,0,0,0,0,0,0,0,0,0,0,0,0,0,0,0,0,0,0,0,0,0,0,0,0,0,0,0,0,0,0,0,0,0,0,0,0],"sum_hessian":[7.3888E4,6.3249E4,1.0639E4,4.217E4,2.1079E4,6.889E3,3.75E3,2.2585E4,1.9585E4,1.4097E4,6.982E3,4.308E3,2.581E3,2.602E3,1.148E3,1.126E4,1.1325E4,1.1242E4,8.343E3,7.765E3,6.332E3,4.378E3,2.604E3,2.303E3,2.005E3,1.446E3,1.135E3,1.174E3,1.428E3,5.75E2,5.73E2,5.75E3,5.51E3,6.108E3,5.217E3,5.817E3,5.425E3,4.604E3,3.739E3,4.654E3,3.111E3,3.201E3,3.131E3,8.43E2,3.535E3,1.692E3,9.12E2,8.73E2,1.43E3,1.082E3,9.23E2,6.8E2,7.66E2,8.55E2,2.8E2,5.22E2,6.52E2,5.9E2,8.38E2,3.11E2,2.64E2,2.04E2,3.69E2,3.109E3,2.641E3,1.488E3,4.022E3,2.563E3,3.545E3,2.281E3,2.936E3,2.292E3,3.525E3,3.879E3,1.546E3,3.406E3,1.198E3,6.49E2,3.09E3,3.078E3,1.576E3,1.931E3,1.18E3,2.245E3,9.56E2,1.671E3,1.46E3,3.24E2,5.19E2,1.747E3,1.788E3,1.176E3,5.16E2,2.58E2,6.54E2,1.3E1,8.6E2,1.037E3,3.93E2,7.73E2,3.09E2,4.86E2,4.37E2,6.1E2,7E1,6.9E1,6.97E2,7.24E2,1.31E2,2.1E1,2.59E2,6E0,5.16E2,5.1E1,6.01E2,1.7E2,4.2E2,1.58E2,6.8E2,6.9E1,2.42E2,1.84E2,8E1,1.27E2,7.7E1,4.6E1,3.23E2],"tree_param":{"num_deleted":"0","num_feature":"25","num_nodes":"127","size_leaf_vector":"1"}},{"base_weights":[-1.1755185E-1,-6.0216114E1,3.564553E2,-1.0941553E2,2.654874E1,2.6174063E2,5.331943E2,-1.3829216E2,-7.799732E1,-8.288042E0,7.755409E1,2.1329315E2,3.413991E2,4.5497275E2,7.0917114E2,-1.5599374E2,-1.2672161E2,-9.311965E1,-6.1317245E1,-2.7522493E1,1.0079441E1,5.6006046E1,1.08837616E2,1.8409212E2,2.46825E2,3.1373404E2,3.7559473E2,4.122253E2,4.9182755E2,6.349936E2,7.864702E2,-1.6366057E2,-1.4872144E2,-1.3440073E2,-1.1761399E2,-1.00602425E2,-8.50687E1,-6.719723E1,-5.0088165E1,-3.3732113E1,-1.796712E1,6.7862356E-1,2.3562344E1,4.4253002E1,7.226545E1,9.2658745E1,1.22624985E2,1.555458E2,2.0076955E2,2.629476E2,2.2790062E2,3.2411365E2,2.821388E2,3.953894E2,3.148612E2,1.6641012E1,4.1781262E2,4.6303427E2,5.344645E2,4.865938E2,6.5149774E2,6.969746E2,8.378115E2,-9.126764E0,-8.113418E0,-7.6246324E0,-7.220386E0,-6.9093146E0,-6.5283747E0,-6.008364E0,-5.3922E0,-5.180477E0,-4.632846E0,-4.431985E0,-3.9966645E0,-3.521331E0,-2.862344E0,-2.7660334E0,-1.8554716E0,-1.7895768E0,-9.3210906E-1,-1.096485E0,-4.0928945E-1,4.1613895E-1,-3.8286343E-1,9.964822E-1,2.2136974E0,1.6469043E0,2.7128656E0,5.0070486E0,3.2713125E0,3.9518826E0,5.4983788E0,6.7806334E0,5.305226E0,1.5597107E1,7.638856E0,9.647931E0,1.1937484E1,1.2336289E1,1.5080585E1,1.0376876E1,1.204162E1,1.5513076E1,1.8443928E1,1.5391797E1,1.2672331E1,1.8714735E1,2.3630695E1,1.63025E1,1.3899596E1,2.0192467E1,2.2514883E1,2.1456745E1,2.5125486E1,2.8851496E1,2.4045378E1,2.4661526E1,9.472517E0,2.9665644E1,3.621527E1,2.7010855E1,3.576686E1,3.273481E1,4.27749E1],"categories":[],"categories_nodes":[],"categories_segments":[],"categories_sizes":[],"default_left":[0,0,0,0,0,0,0,0,0,0,0,0,0,0,0,0,0,0,0,0,0,0,0,0,0,0,0,0,0,0,0,0,0,0,0,0,0,0,0,0,0,0,0,0,0,0,0,0,0,0,0,0,0,0,0,0,0,0,0,0,0,0,0,0,0,0,0,0,0,0,0,0,0,0,0,0,0,0,0,0,0,0,0,0,0,0,0,0,0,0,0,0,0,0,0,0,0,0,0,0,0,0,0,0,0,0,0,0,0,0,0,0,0,0,0,0,0,0,0,0,0,0,0,0,0],"id":12,"left_children":[1,3,5,7,9,11,13,15,17,19,21,23,25,27,29,31,33,35,37,39,41,43,45,47,49,51,53,55,57,59,61,63,65,67,69,71,73,75,77,79,81,83,85,87,89,91,93,95,97,99,101,103,105,107,109,-1,111,113,115,117,119,121,123,-1,-1,-1,-1,-1,-1,-1,-1,-1,-1,-1,-1,-1,-1,-1,-1,-1,-1,-1,-1,-1,-1,-1,-1,-1,-1,-1,-1,-1,-1,-1,-1,-1,-1,-1,-1,-1,-1,-1,-1,-1,-1,-1,-1,-1,-1,-1,-1,-1,-1,-1,-1,-1,-1,-1,-1,-1,-1,-1,-1,-1,-1],"loss_changes":[1.5886986E9,2.7082714E8,1.7885888E8,3.672019E7,4.079385E7,2.6803008E7,5.102144E7,4.300864E6,4.88576E6,4.8198385E6,6.274484E6,4.19728E6,2.372096E6,3.86976E6,6.071552E6,4.4032E5,8.76736E5,6.04056E5,6.05668E5,3.948035E5,8.8457444E5,1.05147E6,8.36056E5,1.073272E6,5.54568E5,3.8768E5,1.28448E6,3.94656E5,1.450368E6,1.128032E6,1.97536E6,7.6736E4,4.7736E4,8.2336E4,1.32864E5,1.162E5,8.2864E4,1.9041E5,2.134975E5,1.2482E5,1.0164119E5,2.621476E5,2.1482788E5,3.61125E5,4.34603E5,4.04369E5,4.25034E5,3.24736E5,3.87356E5,6.03592E5,1.95968E5,5.63312E5,1.94048E5,1.256656E6,3.0228E4,0E0,3.26192E5,8.99072E5,9.78592E5,3.0796E4,1.807024E6,2.15168E5,5.70208E5,0E0,0E0,0E0,0E0,0E0,0E0,0E0,0E0,0E0,0E0,0E0,0E0,0E0,0E0,0E0,0E0,0E0,0E0,0E0,0E0,0E0,0E0,0E0,0E0,0E0,0E0,0E0,0E0,0E0,0E0,0E0,0E0,0E0,0E0,0E0,0E0,0E0,0E0,0E0,0E0,0E0,0E0,0E0,0E0,0E0,0E0,0E0,0E0,0E0,0E0,0E0,0E0,0E0,0E0,0E0,0E0,0E0,0E0,0E0,0E0,0E0,0E0],"parents":[2147483647,0,0,1,1,2,2,3,3,4,4,5,5,6,6,7,7,8,8,9,9,10,10,11,11,12,12,13,13,14,14,15,15,16,16,17,17,18,18,19,19,20,20,21,21,22,22,23,23,24,24,25,25,26,26,27,27,28,28,29,29,30,30,31,31,32,32,33,33,34,34,35,35,36,36,37,37,38,38,39,39,40,40,41,41,42,42,43,43,44,44,45,45,46,46,47,47,48,48,49,49,50,50,51,51,52,52,53,53,54,54,56,56,57,57,58,58,59,59,60,60,61,61,62,62],"right_children":[2,4,6,8,10,12,14,16,18,20,22,24,26,28,30,32,34,36,38,40,42,44,46,48,50,52,54,56,58,60,62,64,66,68,70,72,74,76,78,80,82,84,86,88,90,92,94,96,98,100,102,104,106,108,110,-1,112,114,116,118,120,122,124,-1,-1,-1,-1,-1,-1,-1,-1,-1,-1,-1,-1,-1,-1,-1,-1,-1,-1,-1,-1,-1,-1,-1,-1,-1,-1,-1,-1,-1,-1,-1,-1,-1,-1,-1,-1,-1,-1,-1,-1,-1,-1,-1,-1,-1,-1,-1,-1,-1,-1,-1,-1,-1,-1,-1,-1,-1,-1,-1,-1,-1,-1],"split_conditions":[8.885714E1,4.0142857E1,1.5292857E2,2.3E1,5.9357143E1,1.2464286E2,1.94E2,1.4428572E1,3.1285715E1,4.8142857E1,7.321429E1,1.0792857E2,1.3985715E2,3.1E1,2.2528572E2,1.0857142E1,1.8857143E1,2.7214285E1,3.6714287E1,4.5E1,5.407143E1,6.7E1,7.942857E1,9.521429E1,3.4285805E1,4.6675934E1,4.9139015E1,8E0,1.8E1,3.9E1,4.7E1,6.928571E0,1.2857142E1,1.65E1,3.9E1,3.9E1,3E1,3.9E1,3.9E1,4.6E1,1.5E1,3E0,7.6E1,8E0,2.0326998E1,3.9E1,2.9940601E1,1.6750267E1,4.7E1,3.1E1,1.1478571E2,3.9E1,1.4E1,1E1,6.008803E1,1.6641012E1,1.7092857E2,1.7564285E2,2.5E1,4.5233645E0,1.8E1,2.1114285E2,2.3E2,-9.126764E0,-8.113418E0,-7.6246324E0,-7.220386E0,-6.9093146E0,-6.5283747E0,-6.008364E0,-5.3922E0,-5.180477E0,-4.632846E0,-4.431985E0,-3.9966645E0,-3.521331E0,-2.862344E0,-2.7660334E0,-1.8554716E0,-1.7895768E0,-9.3210906E-1,-1.096485E0,-4.0928945E-1,4.1613895E-1,-3.8286343E-1,9.964822E-1,2.2136974E0,1.6469043E0,2.7128656E0,5.0070486E0,3.2713125E0,3.9518826E0,5.4983788E0,6.7806334E0,5.305226E0,1.5597107E1,7.638856E0,9.647931E0,1.1937484E1,1.2336289E1,1.5080585E1,1.0376876E1,1.204162E1,1.5513076E1,1.8443928E1,1.5391797E1,1.2672331E1,1.8714735E1,2.3630695E1,1.63025E1,1.3899596E1,2.0192467E1,2.2514883E1,2.1456745E1,2.5125486E1,2.8851496E1,2.4045378E1,2.4661526E1,9.472517E0,2.9665644E1,3.621527E1,2.7010855E1,3.576686E1,3.273481E1,4.27749E1],"split_indices":[5,5,5,5,5,5,5,5,5,5,5,5,5,12,5,5,5,5,5,5,5,5,5,5,7,7,7,12,10,12,12,5,5,5,12,12,12,12,12,12,22,19,3,11,7,12,7,7,12,12,5,12,10,11,7,0,5,5,10,23,10,4,4,0,0,0,0,0,0,0,0,0,0,0,0,0,0,0,0,0,0,0,0,0,0,0,0,0,0,0,0,0,0,0,0,0,0,0,0,0,0,0,0,0,0,0,0,0,0,0,0,0,0,0,0,0,0,0,0,0,0,0,0,0,0],"split_type":[0,0,0,0,0,0,0,0,0,0,0,0,0,0,0,0,0,0,0,0,0,0,0,0,0,0,0,0,0,0,0,0,0,0,0,0,0,0,0,0,0,0,0,0,0,0,0,0,0,0,0,0,0,0,0,0,0,0,0,0,0,0,0,0,0,0,0,0,0,0,0,0,0,0,0,0,0,0,0,0,0,0,0,0,0,0,0,0,0,0,0,0,0,0,0,0,0,0,0,0,0,0,0,0,0,0,0,0,0,0,0,0,0,0,0,0,0,0,0,0,0,0,0,0,0],"sum_hessian":[7.4134E4,6.3442E4,1.0692E4,4.0485E4,2.2957E4,6.963E3,3.729E3,2.1094E4,1.9391E4,1.3641E4,9.316E3,4.332E3,2.631E3,2.584E3,1.145E3,8.333E3,1.2761E4,1.0168E4,9.223E3,6.663E3,6.978E3,5.518E3,3.798E3,2.319E3,2.013E3,1.46E3,1.171E3,1.202E3,1.382E3,5.89E2,5.56E2,4.046E3,4.287E3,6.916E3,5.845E3,5.264E3,4.904E3,6.05E3,3.173E3,4.037E3,2.626E3,4.112E3,2.866E3,3.205E3,2.313E3,1.751E3,2.047E3,8.59E2,1.46E3,1.08E3,9.33E2,1.092E3,3.68E2,8.79E2,2.92E2,8.3E1,1.119E3,8.32E2,5.5E2,6.2E1,5.27E2,2.08E2,3.48E2,2.69E2,3.777E3,2.269E3,2.018E3,3.462E3,3.454E3,4.625E3,1.22E3,3.81E3,1.454E3,2.883E3,2.021E3,4.563E3,1.487E3,2.259E3,9.14E2,3.551E3,4.86E2,1.868E3,7.58E2,2.145E3,1.967E3,2.44E3,4.26E2,1.506E3,1.699E3,4.53E2,1.86E3,9.83E2,7.68E2,1.142E3,9.05E2,1.3E1,8.46E2,1.216E3,2.44E2,7.66E2,3.14E2,3.69E2,5.64E2,8.4E2,2.52E2,1.89E2,1.79E2,6.95E2,1.84E2,2.18E2,7.4E1,7.92E2,3.27E2,4.54E2,3.78E2,3.01E2,2.49E2,6E1,2E0,2.98E2,2.29E2,2.5E1,1.83E2,3.4E1,3.14E2],"tree_param":{"num_deleted":"0","num_feature":"25","num_nodes":"125","size_leaf_vector":"1"}},{"base_weights":[-5.6515545E-1,-5.6635185E1,3.449581E2,-1.01263435E2,3.1119755E1,2.6875345E2,5.4416626E2,-1.2869637E2,-6.832E1,4.543791E0,9.060262E1,2.1182536E2,3.4589725E2,4.5207773E2,6.79471E2,-1.440247E2,-1.1423312E2,-8.1971886E1,-5.0814518E1,-1.2105447E1,3.047441E1,7.542474E1,1.1874351E2,1.8366582E2,2.4468732E2,3.1023682E2,3.7494412E2,4.24532E2,4.8132904E2,6.3961505E2,7.991725E2,-1.5263028E2,-1.351297E2,-1.21089874E2,-1.0473932E2,-8.878275E1,-7.289904E1,-5.7418724E1,-3.9806755E1,-2.3241203E1,-4.178698E-1,2.1229671E1,3.9422737E1,1.0114519E2,6.925263E1,1.3723141E2,1.0906406E2,1.591781E2,1.9811745E2,2.5530196E2,2.1109892E2,3.2470093E2,2.8484354E2,3.8762762E2,3.1788565E2,4.4996054E2,3.9444293E2,4.3196674E2,5.0040073E2,5.9594696E2,6.920788E2,4.465339E1,7.186417E2,-8.157524E0,-7.50157E0,-6.9948764E0,-6.63936E0,-6.247392E0,-5.8231764E0,-5.5318694E0,-5.1070824E0,-4.5414996E0,-4.104528E0,-3.8102696E0,-3.297282E0,-2.4825568E0,-3.0353067E0,-1.221485E0,-2.1529307E0,-4.7254872E-1,-1.2830608E0,-2.4486387E-1,6.291951E-1,6.839246E-1,1.488232E0,2.090062E0,1.0221656E-1,3.7242832E0,5.3974943E0,2.9168522E0,4.0716043E0,6.3396487E0,7.8991227E0,4.1493926E0,5.7316585E0,1.5471736E1,7.8350763E0,1.0669383E1,8.718078E0,1.1967042E1,1.3883415E1,9.636487E0,1.1852602E1,1.2463945E1,1.639558E1,1.4446741E1,1.00878935E1,2.1415442E1,1.8776833E1,1.4790751E1,1.8844872E1,9.216394E0,2.2591854E1,1.9941631E1,7.653999E0,2.166343E1,3.1833618E0,2.8904993E1,2.4289633E1,2.6568182E1,3.1807531E1,3.771597E1,2.8925154E1,9.916397E0,3.603463E1],"categories":[],"categories_nodes":[],"categories_segments":[],"categories_sizes":[],"default_left":[0,0,0,0,0,0,0,0,0,0,0,0,0,0,0,0,0,0,0,0,0,0,0,0,0,0,0,0,0,0,0,0,0,0,0,0,0,0,0,0,0,0,0,0,0,0,0,0,0,0,0,0,0,0,0,0,0,0,0,0,0,0,0,0,0,0,0,0,0,0,0,0,0,0,0,0,0,0,0,0,0,0,0,0,0,0,0,0,0,0,0,0,0,0,0,0,0,0,0,0,0,0,0,0,0,0,0,0,0,0,0,0,0,0,0,0,0,0,0,0,0,0,0,0,0],"id":13,"left_children":[1,3,5,7,9,11,13,15,17,19,21,23,25,27,29,31,33,35,37,39,41,43,45,47,49,51,53,55,57,59,61,63,65,67,69,71,73,75,77,79,81,83,85,87,89,91,93,95,97,99,101,103,105,107,109,111,113,115,117,119,121,-1,123,-1,-1,-1,-1,-1,-1,-1,-1,-1,-1,-1,-1,-1,-1,-1,-1,-1,-1,-1,-1,-1,-1,-1,-1,-1,-1,-1,-1,-1,-1,-1,-1,-1,-1,-1,-1,-1,-1,-1,-1,-1,-1,-1,-1,-1,-1,-1,-1,-1,-1,-1,-1,-1,-1,-1,-1,-1,-1,-1,-1,-1,-1],"loss_changes":[1.4307524E9,2.4884798E8,1.5638093E8,3.805651E7,3.3862216E7,3.2688448E7,3.5228736E7,5.078368E6,4.56996E6,6.3929215E6,2.81644E6,3.929568E6,3.163072E6,1.165408E6,4.989568E6,8.33104E5,7.5736E5,6.57936E5,6.07576E5,1.1736831E6,4.781405E5,6.75618E5,3.99486E5,7.88424E5,6.5168E5,4.31648E5,1.136016E6,4.9888E5,5.52992E5,1.580704E6,1.505648E6,1.30288E5,4.2776E4,1.0792E5,6.4812E4,7.6624E4,1.011E5,1.30814E5,1.564105E5,1.5387175E5,2.5637689E5,1.8327262E5,2.61382E5,1.42529E5,4.56704E5,1.51522E5,2.1195E5,2.73396E5,4.89876E5,4.68672E5,1.83622E5,1.36672E5,1.20508E5,5.3712E5,3.07892E5,1.51976E5,3.7652E5,8.5092E4,3.8088E5,9.13472E5,2.313472E6,0E0,2.5664E4,0E0,0E0,0E0,0E0,0E0,0E0,0E0,0E0,0E0,0E0,0E0,0E0,0E0,0E0,0E0,0E0,0E0,0E0,0E0,0E0,0E0,0E0,0E0,0E0,0E0,0E0,0E0,0E0,0E0,0E0,0E0,0E0,0E0,0E0,0E0,0E0,0E0,0E0,0E0,0E0,0E0,0E0,0E0,0E0,0E0,0E0,0E0,0E0,0E0,0E0,0E0,0E0,0E0,0E0,0E0,0E0,0E0,0E0,0E0,0E0,0E0,0E0],"parents":[2147483647,0,0,1,1,2,2,3,3,4,4,5,5,6,6,7,7,8,8,9,9,10,10,11,11,12,12,13,13,14,14,15,15,16,16,17,17,18,18,19,19,20,20,21,21,22,22,23,23,24,24,25,25,26,26,27,27,28,28,29,29,30,30,31,31,32,32,33,33,34,34,35,35,36,36,37,37,38,38,39,39,40,40,41,41,42,42,43,43,44,44,45,45,46,46,47,47,48,48,49,49,50,50,51,51,52,52,53,53,54,54,55,55,56,56,57,57,58,58,59,59,60,60,62,62],"right_children":[2,4,6,8,10,12,14,16,18,20,22,24,26,28,30,32,34,36,38,40,42,44,46,48,50,52,54,56,58,60,62,64,66,68,70,72,74,76,78,80,82,84,86,88,90,92,94,96,98,100,102,104,106,108,110,112,114,116,118,120,122,-1,124,-1,-1,-1,-1,-1,-1,-1,-1,-1,-1,-1,-1,-1,-1,-1,-1,-1,-1,-1,-1,-1,-1,-1,-1,-1,-1,-1,-1,-1,-1,-1,-1,-1,-1,-1,-1,-1,-1,-1,-1,-1,-1,-1,-1,-1,-1,-1,-1,-1,-1,-1,-1,-1,-1,-1,-1,-1,-1,-1,-1,-1,-1],"split_conditions":[9.078571E1,4.2214287E1,1.6292857E2,2.4571428E1,6.614286E1,1.2757143E2,1.94E2,1.6142857E1,3.357143E1,5.407143E1,7.942857E1,1.1035714E2,1.4314285E2,1.7564285E2,2.5428572E2,1.2357142E1,2.0857143E1,2.9571428E1,3.85E1,4.7857143E1,5.9357143E1,2.0326998E1,2.5583841E1,9.778571E1,4.241708E1,4.241708E1,5.340582E1,4.9139015E1,1.34E2,1.8E1,9.106863E1,8.5E0,1.3857142E1,1.8642857E1,2.1857143E1,3.3E1,7E0,1.123011E1,1E0,1.1433516E1,5.9E1,6.9402223E0,3.7550846E1,6.85E1,7.235714E1,8.607143E1,5.2E1,1.6880478E1,3.3049026E1,1.1957143E2,5.533448E1,1.2051514E2,1.5E1,3.202403E1,1.6771428E2,1.02E2,9.106863E1,2.93E2,4.1604694E1,2.1114285E2,2.6E1,4.465339E1,1.0123457E0,-8.157524E0,-7.50157E0,-6.9948764E0,-6.63936E0,-6.247392E0,-5.8231764E0,-5.5318694E0,-5.1070824E0,-4.5414996E0,-4.104528E0,-3.8102696E0,-3.297282E0,-2.4825568E0,-3.0353067E0,-1.221485E0,-2.1529307E0,-4.7254872E-1,-1.2830608E0,-2.4486387E-1,6.291951E-1,6.839246E-1,1.488232E0,2.090062E0,1.0221656E-1,3.7242832E0,5.3974943E0,2.9168522E0,4.0716043E0,6.3396487E0,7.8991227E0,4.1493926E0,5.7316585E0,1.5471736E1,7.8350763E0,1.0669383E1,8.718078E0,1.1967042E1,1.3883415E1,9.636487E0,1.1852602E1,1.2463945E1,1.639558E1,1.4446741E1,1.00878935E1,2.1415442E1,1.8776833E1,1.4790751E1,1.8844872E1,9.216394E0,2.2591854E1,1.9941631E1,7.653999E0,2.166343E1,3.1833618E0,2.8904993E1,2.4289633E1,2.6568182E1,3.1807531E1,3.771597E1,2.8925154E1,9.916397E0,3.603463E1],"split_indices":[5,5,5,5,5,5,5,5,5,5,5,5,5,5,5,5,5,5,5,5,5,7,7,5,7,7,7,7,3,10,7,5,5,5,5,3,19,7,19,7,3,21,7,5,5,5,3,7,6,5,6,8,22,7,4,2,7,2,7,4,10,0,23,0,0,0,0,0,0,0,0,0,0,0,0,0,0,0,0,0,0,0,0,0,0,0,0,0,0,0,0,0,0,0,0,0,0,0,0,0,0,0,0,0,0,0,0,0,0,0,0,0,0,0,0,0,0,0,0,0,0,0,0,0,0],"split_type":[0,0,0,0,0,0,0,0,0,0,0,0,0,0,0,0,0,0,0,0,0,0,0,0,0,0,0,0,0,0,0,0,0,0,0,0,0,0,0,0,0,0,0,0,0,0,0,0,0,0,0,0,0,0,0,0,0,0,0,0,0,0,0,0,0,0,0,0,0,0,0,0,0,0,0,0,0,0,0,0,0,0,0,0,0,0,0,0,0,0,0,0,0,0,0,0,0,0,0,0,0,0,0,0,0,0,0,0,0,0,0,0,0,0,0,0,0,0,0,0,0,0,0,0,0],"sum_hessian":[7.3849E4,6.3539E4,1.031E4,4.2119E4,2.142E4,7.459E3,2.851E3,2.298E4,1.9139E4,1.4806E4,6.614E3,4.294E3,3.165E3,1.699E3,1.152E3,1.1152E4,1.1828E4,1.0751E4,8.388E3,9.017E3,5.789E3,4.299E3,2.315E3,2.316E3,1.978E3,1.426E3,1.739E3,8.83E2,8.16E2,8.69E2,2.83E2,5.66E3,5.492E3,6.861E3,4.967E3,6.136E3,4.615E3,5.24E3,3.148E3,4.617E3,4.4E3,2.849E3,2.94E3,8.29E2,3.47E3,7.91E2,1.524E3,8.64E2,1.452E3,1.498E3,4.8E2,9.01E2,5.25E2,1.418E3,3.21E2,4.71E2,4.12E2,2.34E2,5.82E2,4.81E2,3.88E2,1.26E2,1.57E2,1.109E3,4.551E3,1.79E3,3.702E3,3.727E3,3.134E3,1.506E3,3.461E3,4.689E3,1.447E3,3.121E3,1.494E3,1.563E3,3.677E3,5.51E2,2.597E3,6.9E2,3.927E3,3.273E3,1.127E3,1.513E3,1.336E3,2.764E3,1.76E2,1.71E2,6.58E2,1.833E3,1.637E3,5.31E2,2.6E2,2.71E2,1.253E3,1.2E1,8.52E2,8.79E2,5.73E2,8.81E2,6.17E2,2.86E2,1.94E2,4E1,8.61E2,4.98E2,2.7E1,3.17E2,1.101E3,2.38E2,8.3E1,4E0,4.67E2,4.04E2,8E0,2.33E2,1E0,8.6E1,4.96E2,1.9E2,2.91E2,2.47E2,1.41E2,1E0,1.56E2],"tree_param":{"num_deleted":"0","num_feature":"25","num_nodes":"125","size_leaf_vector":"1"}},{"base_weights":[-9.1427945E-2,-5.2407917E1,3.3028943E2,-9.561306E1,3.0334745E1,2.582663E2,5.1063116E2,-1.2154805E2,-6.3770214E1,2.2140467E0,8.463442E1,2.0050325E2,3.2123184E2,4.4723016E2,6.599619E2,-1.3595236E2,-1.0782406E2,-7.7449356E1,-4.7826626E1,-1.45619755E1,2.346123E1,6.9211395E1,1.14228806E2,1.2601051E2,2.1325616E2,2.4878627E2,3.385423E2,3.972085E2,5.079584E2,5.713914E2,7.314079E2,-1.4523848E2,-1.2798772E2,-1.1490398E2,-9.9580376E1,-8.423774E1,-7.018016E1,-5.489379E1,-3.7178726E1,-3.1654549E1,-9.17116E0,1.4786726E1,4.3707596E1,4.521244E1,7.92814E1,8.260328E1,1.2680991E2,1.0262264E2,1.7851108E2,1.8041154E2,2.302345E2,2.798173E2,2.2610233E2,3.0433472E2,3.6553323E2,3.135718E2,4.0509302E2,3.66749E2,5.3063855E2,1.9762924E1,5.992119E2,5.875638E2,7.583251E2,-7.781021E0,-7.157295E0,-6.6092415E0,-6.2391586E0,-5.9215083E0,-5.4931655E0,-5.246132E0,-4.70696E0,-4.3619175E0,-3.7515073E0,-3.8514218E0,-3.2377598E0,-3.1502395E0,-2.4302833E0,-9.092372E-1,-2.0988498E0,-7.5093013E-1,-1.9060967E0,-7.7953357E-1,1.792569E-1,-9.998621E-2,1.1079042E0,1.7158495E0,3.0916135E0,1.211069E0,2.8324296E0,3.36711E0,4.874439E0,3.456187E0,6.2473397E0,6.64558E0,4.5618334E0,5.8908443E0,1.4805586E0,6.3840675E0,1.018468E1,8.8025675E0,1.4759414E1,1.17019E1,7.621483E0,1.2601194E1,1.5162462E1,6.881149E0,1.1573479E1,1.5704058E1,1.3088099E1,1.5589081E1,1.885284E1,1.612788E1,8.439617E0,1.4725211E1,2.0488602E1,7.90171E0,1.9429441E1,2.423922E1,2.9474869E1,3.2003998E1,2.406511E1,1.9394245E1,3.0708029E1,3.6131817E1,4.2687904E1],"categories":[],"categories_nodes":[],"categories_segments":[],